2186 200
</s> 0.002001 0.002210 -0.001915 -0.001639 0.000683 0.001511 0.000470 0.000106 -0.001802 0.001109 -0.002178 0.000625 -0.000376 -0.000479 -0.001658 -0.000941 0.001290 0.001513 0.001485 0.000799 0.000772 -0.001901 -0.002048 0.002485 0.001901 0.001545 -0.000302 0.002008 -0.000247 0.000367 -0.000075 -0.001492 0.000656 -0.000669 -0.001913 0.002377 0.002190 -0.000548 -0.000113 0.000255 -0.001819 -0.002004 0.002277 0.000032 -0.001291 -0.001521 -0.001538 0.000848 0.000101 0.000666 -0.002107 -0.001904 -0.000065 0.000572 0.001275 -0.001585 0.002040 0.000463 0.000560 -0.000304 0.001493 -0.001144 -0.001049 0.001079 -0.000377 0.000515 0.000902 -0.002044 -0.000992 0.001457 0.002116 0.001966 -0.001523 -0.001054 -0.000455 0.001001 -0.001894 0.001499 0.001394 -0.000799 -0.000776 -0.001119 0.002114 0.001956 -0.000590 0.002107 0.002410 0.000908 0.002491 -0.001556 -0.000766 -0.001054 -0.001454 0.001407 0.000790 0.000212 -0.001097 0.000762 0.001530 0.000097 0.001140 -0.002476 0.002157 0.000240 -0.000916 -0.001042 -0.000374 -0.001468 -0.002185 -0.001419 0.002139 -0.000885 -0.001340 0.001159 -0.000852 0.002378 -0.000802 -0.002294 0.001358 -0.000037 -0.001744 0.000488 0.000721 -0.000241 0.000912 -0.001979 0.000441 0.000908 -0.001505 0.000071 -0.000030 -0.001200 -0.001416 -0.002347 0.000011 0.000076 0.000005 -0.001967 -0.002481 -0.002373 -0.002163 -0.000274 0.000696 0.000592 -0.001591 0.002499 -0.001006 -0.000637 -0.000702 0.002366 -0.001882 0.000581 -0.000668 0.001594 0.000020 0.002135 -0.001410 -0.001303 -0.002096 -0.001833 -0.001600 -0.001557 0.001222 -0.000933 0.001340 0.001845 0.000678 0.001475 0.001238 0.001170 -0.001775 -0.001717 -0.001828 -0.000066 0.002065 -0.001368 -0.001530 -0.002098 0.001653 -0.002089 -0.000290 0.001089 -0.002309 -0.002239 0.000721 0.001762 0.002132 0.001073 0.001581 -0.001564 -0.001820 0.001987 -0.001382 0.000877 0.000287 0.000895 -0.000591 0.000099 -0.000843 -0.000563 
人 -0.026110 -0.349789 -0.569431 0.524035 -0.386747 0.273065 0.186745 -0.115915 -0.366150 -0.426134 0.737390 -0.676574 0.206227 0.319696 -0.306999 0.124234 0.117638 0.556531 0.327104 0.170308 0.091642 0.520101 0.070993 0.247770 0.205079 0.842720 0.602432 -0.472380 -0.866566 0.299800 0.107058 -0.254106 -0.317202 -0.078287 -0.441709 0.216501 -0.276873 0.080535 -0.194739 0.161340 -0.497367 -0.041514 -0.224645 -0.053027 0.561517 0.068064 0.082059 0.838183 -0.611231 -0.335246 0.136077 -0.228577 -0.614849 0.353668 -0.105820 0.308794 0.194191 -0.314648 0.343093 0.446339 0.637048 0.020826 0.000985 -0.232817 -0.048737 -0.011668 0.625883 -0.033095 0.471068 0.709549 0.051493 0.617971 0.090627 -0.658476 0.346322 -0.160501 0.323282 0.069285 -0.221635 0.011706 0.165623 0.171626 -0.086910 0.391532 1.197143 0.885895 -0.127891 -0.307650 0.399041 -0.909178 0.657001 0.085734 0.243940 -0.427728 -0.686577 0.203929 -0.719646 -0.009466 -0.139471 0.654347 -0.435085 -0.239089 0.190903 0.279735 -0.221390 -0.449818 0.328631 -0.452735 -0.587514 0.458332 -0.183125 0.077986 -0.247980 -0.024470 0.241483 0.008064 0.135790 -0.695139 0.466030 0.070443 0.237738 0.130201 0.015623 0.699349 0.321287 0.251693 0.723600 0.192404 0.458780 -0.131844 -0.058248 -0.220782 -0.493324 0.102327 0.149160 0.065964 0.054447 0.560125 0.001456 -0.120780 0.195297 0.291402 -0.256045 0.202098 0.393956 0.026788 0.450384 0.003488 0.406010 -0.330138 1.003542 -0.650599 0.057237 -0.146725 -0.273074 -0.042323 -0.244365 0.262268 -0.460500 -0.583189 0.433601 0.652931 0.102563 -0.385245 0.758744 0.553845 -0.143450 -0.163527 0.411103 0.204133 -0.148366 0.311448 0.329648 -0.246290 -0.634445 -0.742099 -0.029944 0.299328 0.238842 -0.498146 -0.559304 0.638677 -0.810268 -0.375345 -0.124580 0.883328 0.288728 -0.210686 -0.126500 -0.008342 0.375165 0.326128 -0.189075 0.821546 -0.015390 0.496316 0.530690 -0.023313 0.218931 -0.530546 
部件 0.348926 -0.088593 0.341597 0.444259 -0.156200 0.245942 0.061165 0.569209 -0.220653 -0.324715 0.340534 0.535702 0.303785 -0.504130 0.440123 -0.421457 -0.253619 0.846795 -0.166025 0.472952 -0.098476 0.334861 1.013846 0.124756 0.517585 -0.818459 -0.094584 -0.146530 0.927609 -0.183537 0.016579 -0.408419 -0.386168 -0.513612 -0.644406 -0.335925 -0.464808 0.310911 0.832021 0.130827 -0.837132 0.279556 -0.062963 -0.468504 0.759587 -0.435263 -0.076075 0.330016 -0.108860 -0.154046 -0.154494 0.411613 0.229919 0.583061 -0.160566 -0.200449 0.126333 0.827976 -0.009616 0.333297 -0.578308 -0.086137 0.589102 0.751616 -0.296828 -0.063391 0.444127 0.236493 -0.487436 0.126960 -0.014798 -0.978171 0.592844 0.085079 -0.152597 0.239828 -0.208003 0.112886 -0.210079 -0.582283 0.151619 0.410037 -0.292194 -0.711085 0.467774 0.075171 0.616385 -0.088665 0.353145 -0.395091 -0.200050 -0.184200 0.130870 -0.436090 -0.679574 0.253074 0.438961 0.442687 -0.800704 0.148882 -0.570729 0.222629 -0.351179 -0.491957 0.561545 -0.254881 -0.286417 -0.281474 -0.430519 0.300495 0.339053 0.344447 0.007008 0.627926 -0.467710 -0.194192 0.723660 0.404263 -0.362051 0.549548 -0.220337 -0.886325 0.113580 0.981892 0.144269 0.103765 -1.054002 -0.167019 -0.541241 -0.402641 0.376406 -0.136402 -0.579624 -0.033447 -0.222766 0.242719 -0.298702 0.435184 0.508662 -0.402902 0.165000 -0.729179 0.887500 0.837379 -0.100179 -0.106523 0.440661 0.215804 0.514008 -0.743112 -0.066824 0.187545 0.406036 0.670006 0.216601 -0.978356 -0.377328 -0.296168 -1.175848 1.515657 -0.158564 -0.764882 -0.157666 -0.055548 -0.661309 -0.127134 0.543683 -0.267030 0.646010 -0.046302 0.263258 0.241686 0.203942 0.148340 1.376820 0.595418 -0.161125 0.592358 0.312357 -0.219129 -0.536409 0.418003 -0.177513 0.836728 0.158180 0.193917 -0.116646 -0.465921 -0.133387 0.846352 0.240348 -0.070030 -1.808575 -0.104871 -0.739780 0.453761 -0.510640 0.038689 0.411743 -1.146433 
地方 0.715490 -0.203763 0.640230 -0.142978 -0.545602 -0.001060 -0.477329 0.109224 -0.280293 -0.108905 -0.456886 0.736881 -0.333666 0.202597 -0.301767 0.170368 0.039037 -0.435040 0.119921 -0.085684 0.066526 0.275950 0.913635 0.478942 1.463238 0.174178 0.329837 0.840888 0.174716 -0.426120 -0.096920 0.652253 -0.681568 0.286526 0.420659 0.584150 -0.008816 0.263038 0.683810 0.091748 0.402595 1.713522 -1.320173 -0.934469 0.207163 -0.200346 0.123189 1.009649 0.832424 -0.176497 0.168052 0.014773 0.012128 0.024991 0.045999 0.773324 0.548234 0.772382 -0.489339 -0.446094 -0.849783 0.321505 -0.047044 -1.062367 0.000275 0.881337 0.710201 -0.545846 -0.078324 1.294506 0.455739 0.554590 -0.346831 -0.464319 -0.134095 -0.068436 0.076763 0.290948 -1.041333 0.014687 -0.514666 0.259928 0.247140 1.003201 0.037722 -0.119885 -0.134214 -0.101714 0.738350 -0.034497 1.366363 0.433375 -0.249778 -0.393213 -0.810600 0.312616 0.370406 0.305317 -1.281907 0.353893 1.066976 0.536392 0.379667 0.488677 0.362535 0.908376 -0.094526 -0.126140 -0.020048 -0.131724 0.295798 0.205212 0.333586 0.041936 1.028287 -0.610622 0.303408 -0.683770 0.656697 -0.004243 1.019794 0.640849 0.540445 1.201132 -0.505404 0.340823 0.907049 -0.761349 -0.267092 0.542615 -0.055935 0.178268 0.425517 0.219469 -0.758759 0.123680 0.283378 -0.826087 -0.093829 -0.250370 -0.092626 0.413555 0.337988 -0.743175 0.228555 0.559791 0.308583 0.872204 -0.314944 -0.126754 -0.378652 0.031246 -0.812914 -0.476020 0.535133 -0.616155 0.266752 -0.436787 -0.333631 -0.295844 -0.379240 0.573328 0.894923 -0.524176 0.813827 -0.091224 -0.546863 -0.555497 0.989149 -0.638337 -0.238218 0.424099 -0.482146 -0.352080 -0.813246 0.323770 0.074148 -0.735350 0.409711 -0.818323 0.039232 -0.132935 -0.012007 -0.248610 -0.355818 1.103005 0.378195 0.978906 0.032801 -0.770468 0.139099 0.067482 0.826712 0.054771 0.468208 -0.753750 -0.662772 -0.119640 -1.066825 0.234970 
专 1.431682 -0.548777 1.263636 -1.251657 1.191407 -1.117719 -0.820851 0.308536 1.300169 -0.414713 0.112328 -0.578837 -0.007508 1.075947 0.534734 -0.613386 0.093249 0.211837 0.387111 0.041303 -0.198937 0.061152 0.592611 0.368970 0.158364 1.042367 -0.551519 -1.515471 0.220231 0.024231 -0.128953 -0.465388 -0.810248 -0.376999 0.388323 -0.701168 -0.408969 -0.390309 0.653148 0.458544 -0.848796 -0.254829 -1.430389 0.099894 0.423486 0.242962 -0.286538 0.117278 -0.011561 -0.240874 0.771315 0.274851 0.685263 -0.515558 -0.826526 0.948846 0.935377 -0.485967 0.338480 0.938543 -0.010891 -0.372887 -0.239574 -1.209504 -0.211087 0.564627 1.126114 0.855548 0.988728 0.998834 0.631850 -0.970788 0.149939 -0.499757 -0.197693 -0.274318 -0.234477 -0.189690 -0.347370 -0.440432 -0.846730 0.036148 -0.274266 0.137920 0.555673 0.940005 0.322991 0.519177 0.613386 -1.237267 1.033416 -0.369227 0.642079 0.146566 0.025697 0.773802 0.825667 1.443867 -0.200742 -0.100263 -0.561107 0.359987 0.558973 0.120676 1.033364 -0.590721 0.238376 -1.086901 0.173174 0.828679 0.157048 0.088869 0.567972 -0.125731 -0.969901 0.411395 0.695932 -0.620193 -0.400721 0.081496 0.595440 0.526291 0.833561 0.495054 0.242979 0.368357 0.818427 0.287709 0.148034 -0.273889 -0.026471 -0.136693 0.377713 0.333785 -0.127300 -0.923595 0.667062 -0.478108 -0.270578 -0.637182 -0.979695 -0.129206 -0.183377 -1.022218 0.850900 -0.061575 0.816078 0.930782 -1.257660 -0.728256 -0.343952 0.700704 -1.570607 -0.200387 0.539294 -1.208306 0.079277 0.194720 -0.984606 1.805369 -0.350404 -1.349823 0.855140 -0.919321 0.130351 0.286746 0.112042 0.252503 0.560698 0.163944 -0.843321 -0.940681 0.249082 -0.932860 0.602458 0.755219 0.500327 0.283111 0.672454 -1.339070 0.124680 1.278595 0.284493 -0.373849 0.705054 -0.082245 0.029613 -0.377757 -0.729972 1.019964 -0.326655 0.240352 -0.959280 1.577651 -0.280169 -0.615411 -1.872938 0.050399 -0.246133 0.010735 
用具 -0.671650 0.031438 0.157932 0.073451 -0.171966 0.199330 -0.097860 0.423917 -0.721593 -0.663943 -0.720726 -0.419164 -0.309919 -0.459524 -0.173125 0.039254 0.374780 0.896479 -0.750438 0.797609 -0.362897 -0.750685 -0.043075 -0.227297 0.368905 -0.756461 -0.623654 1.350113 0.524053 0.002101 -0.345263 0.030709 -0.418421 0.507537 -0.013249 0.073235 0.389072 -0.145045 0.790780 0.417565 -0.629117 0.207680 0.884037 -0.491697 -0.421636 0.306318 0.120938 0.632544 0.288767 0.665257 0.398365 -0.645300 -0.246952 0.354927 0.032530 -0.030338 -1.084873 -0.350949 -0.832383 -0.048856 -0.228489 -0.322910 0.282385 0.305536 -0.200450 -0.705090 -0.229036 -0.027699 -0.040685 -0.412627 -0.261845 -0.270267 0.497070 -0.762087 -0.700603 -0.052623 -0.140110 -0.360461 -0.422388 -0.892267 0.779521 0.673355 -1.042480 0.150846 0.742110 -0.114796 -0.499523 -0.061518 0.052840 -0.523533 0.045435 0.463234 0.448565 -0.009951 -0.663055 1.286087 -0.852933 0.223205 1.072949 0.291227 -0.320194 -0.655072 0.016788 0.381212 0.187751 0.141213 0.127583 -0.163774 -0.461226 0.282739 0.478406 0.336672 0.896024 0.357608 0.600682 0.034756 0.284831 -0.843931 -0.223536 1.181443 0.260038 -0.113288 -0.127558 -0.131694 -0.211903 0.050380 -0.203371 -0.087977 -0.510071 -0.161644 0.803643 -0.185165 -0.626578 0.163704 0.311870 1.042051 0.121510 -0.238416 0.738268 0.017896 0.760944 0.018729 -0.321163 0.372198 -0.670898 -0.005720 0.062917 -0.306578 1.077399 -0.453003 -0.743806 -0.414842 0.373219 -0.118783 -0.058683 0.300137 0.157270 0.073324 0.197344 0.746003 -0.154819 -0.578187 0.200653 -0.637712 -0.839889 0.139827 -0.314383 -0.548945 0.445687 -0.031138 -0.375789 -0.192844 -0.190789 0.579433 0.519469 0.525646 0.045990 0.800632 -0.726803 -0.375113 -0.307072 0.273373 -0.334442 0.483177 0.050334 0.170119 0.137137 -1.455663 -0.510121 0.391584 1.379278 0.494416 -0.629479 -0.244556 0.000058 -0.443320 0.226839 -0.196895 0.330812 -0.680355 
事情 0.074302 0.789546 -0.260005 0.814059 -0.240308 -0.370773 -0.264855 -0.611512 -0.458277 0.075737 0.354428 -0.025112 0.611069 0.148013 0.908642 -0.154152 0.017648 -0.408171 0.204852 -0.316639 -0.511374 0.166836 0.200883 -1.048067 0.185395 -0.080694 -0.287650 0.282795 0.313457 0.198845 -0.181320 -0.036749 -0.119363 -0.026265 -0.295327 0.153031 -0.090130 -0.891747 1.253440 0.169958 0.192315 -0.386014 -0.377957 -0.595486 0.060271 -0.012396 0.043556 0.876831 -0.493021 -0.139769 1.072911 -0.239995 0.419939 0.612843 0.669950 -0.312191 -0.050078 0.184397 0.328375 0.509404 -0.135914 0.174842 -0.079357 0.463734 -0.017720 -0.009473 0.233295 -0.492594 0.069983 -0.177590 0.991513 0.383511 0.008869 0.377344 -0.322036 0.200584 -0.018931 0.550792 0.232827 -0.738958 0.066047 -0.020797 -0.037744 -0.449823 0.278590 0.083586 0.139861 -0.127664 0.307156 0.117646 0.204595 0.258901 0.433256 -0.364719 0.049601 -0.194161 0.140088 -0.141701 -0.298700 0.768777 0.072799 0.451483 -0.024076 -0.498087 -0.154407 0.289248 -0.253708 -0.944227 -0.103039 -0.590374 -0.196260 -0.260496 -0.466581 -0.498171 -0.006176 0.372651 0.132097 -0.149590 -0.560412 1.291562 -0.468239 0.309071 -0.134009 -0.334174 0.358107 -0.230347 -0.314441 -0.215504 -0.255528 0.310203 -0.060118 0.571707 -0.521996 0.197325 0.564691 0.932527 0.390593 -0.492873 -0.084224 -0.230051 -0.101634 -0.503908 -0.491307 -0.374454 0.466100 -0.260150 0.162998 0.423494 0.540109 -0.292522 -0.173163 0.618586 -0.412014 -0.129042 0.311847 -0.200665 0.113652 -0.467759 -0.275468 0.299480 0.647228 -0.984609 0.841830 0.309478 0.005575 -0.173339 0.659591 0.331595 0.886997 -0.542130 0.265575 0.287885 0.616447 -0.230476 0.313761 -0.186795 0.410754 0.492833 -0.305210 0.282590 0.039033 0.600355 -0.453577 0.166885 0.091234 0.133948 -0.398754 0.159254 1.018888 -1.076186 0.145377 -0.070474 0.275987 0.397640 -0.103779 -0.012816 0.273888 0.240710 -0.021111 0.097689 
中国 -0.171029 -0.337501 0.497195 -0.201953 0.179941 -0.436983 -0.655640 0.164761 -0.740349 -0.740397 0.087249 -0.548054 -1.346123 -0.565029 0.186299 -0.065147 -0.742578 0.627429 -0.225704 -0.639348 0.380822 0.325083 -0.379318 0.138238 -0.118311 1.023837 0.015314 0.021321 -0.400847 -0.465401 -0.891748 -0.211594 -0.912032 0.358634 -0.540723 -0.027021 0.169721 0.119833 0.677240 0.191339 0.558501 0.085653 -0.983770 -0.130008 -0.956409 0.805312 -1.046546 0.846494 -0.366885 -0.957744 0.102834 0.818077 -0.581879 0.330339 0.058856 0.779589 1.235413 -0.124083 -0.852809 0.562671 -0.335279 0.231645 0.980896 0.386886 -0.634779 -0.029647 -0.236280 0.202140 0.125737 -0.012680 0.704595 0.520495 -0.481800 0.664241 -1.244858 -0.076027 -0.095934 0.640569 -0.503762 -1.026716 0.795722 0.599739 -1.011842 -0.123921 0.332356 0.701948 -0.126617 -0.401180 1.145906 0.661807 0.807026 -0.057571 0.620965 0.720735 0.479404 0.748581 0.326162 0.768960 -0.303385 -0.753793 -0.623942 0.861177 -0.041947 -0.398661 0.099093 -0.554443 -0.101691 0.229384 -0.063202 0.185829 -0.381969 0.316064 0.449717 0.468074 -0.159307 0.365451 0.376598 -0.079093 -0.500858 0.527528 -0.033965 0.469376 -0.754524 0.045022 -0.445156 0.451023 0.218265 -0.145260 0.469572 0.799254 -0.154936 0.320050 -0.134577 -0.715274 0.095930 -0.733537 0.347356 -0.132673 0.236999 -0.625266 -0.188011 -0.584113 0.225854 -0.723668 0.793764 -0.388195 0.478293 0.128770 0.625351 1.050719 0.040881 1.045023 0.209547 -0.996202 0.305325 -0.375939 -0.282656 -0.758017 -0.370353 -0.304570 1.080536 0.687076 0.497796 -0.443732 -0.455176 -0.483965 -0.494365 -0.148238 -0.239204 -1.553326 -0.118806 -0.094488 0.494858 -0.380098 -0.817639 0.274266 0.555903 0.502327 -0.566148 -0.548660 0.272261 1.048015 0.723547 -0.746506 -0.410470 -0.970225 -0.503082 0.818682 0.939269 -0.533506 -0.594335 -0.441881 -0.183619 0.800306 -0.794401 0.406037 -0.618672 -0.876229 0.142561 -0.007302 
时间 -0.558010 0.265462 -0.829350 -0.258341 -0.359340 -0.669697 0.486248 0.521729 -0.257299 0.800939 0.258381 -0.081891 0.228013 -0.126592 -0.625749 -0.625606 0.389583 0.263076 0.757299 -0.284268 1.034040 -0.564893 0.004576 -1.204058 0.317470 0.087047 -0.567973 0.870180 0.295755 0.414043 0.110038 0.255007 0.426169 0.246297 -0.478610 0.749059 -0.059901 0.211896 1.283284 0.191547 0.553862 0.640200 0.163607 -1.070243 -0.034863 0.369668 -0.469161 -0.310253 -0.042146 -0.050407 0.644230 -0.092692 0.791691 -0.432306 0.264988 1.009281 0.787884 0.023118 -0.906615 0.196632 0.490940 -0.638968 0.376078 0.498779 -0.007476 0.237911 -0.861984 -0.377186 -0.543065 0.209396 -0.525661 0.150386 0.428613 0.592719 -0.917091 0.324820 -0.438484 0.067408 -0.342191 -0.293699 0.349370 -0.280813 0.136258 0.608247 0.167976 0.238694 -0.178381 -0.780460 -0.957701 0.584241 0.254107 -0.158175 0.026822 -0.253592 -0.247006 -0.360411 0.742492 -0.960760 -0.096213 -0.242957 0.359961 0.260272 -0.023111 -0.158582 -0.538279 -0.023060 -0.303908 0.416023 0.762249 0.664730 -0.046080 0.691086 -0.214480 0.209938 1.051610 0.573571 0.701262 -0.344931 0.411400 -0.253925 -0.355543 1.134911 0.249318 -0.892180 -0.178920 -0.314239 0.039686 -0.856978 0.678954 0.733452 -1.210588 0.257605 0.200440 -0.104444 -0.151102 0.151237 0.772230 -0.258850 -0.804163 -0.270930 0.774856 0.315622 -0.382304 0.109419 0.935329 -0.757032 0.455550 0.775352 -0.156811 0.206507 0.520775 -0.047657 0.084409 0.070266 0.437419 -0.843742 0.483323 0.239529 0.850414 -1.021250 0.996176 0.622832 0.401936 -0.262704 -0.961301 0.163640 -0.042057 -1.226805 0.566425 -0.790471 -0.512157 -0.147697 -0.534798 -0.371724 0.192459 -0.794928 0.079194 -0.559538 -0.303642 0.728713 -0.325593 0.963496 1.068710 -0.494919 -0.318203 -0.741493 -0.261751 0.055514 0.050764 -0.156648 -0.281998 0.034693 -0.592011 0.447617 -0.190318 -0.034738 0.102423 -1.148525 -0.062432 -0.285870 
动物 0.037192 0.546880 0.110360 0.310702 -0.312496 1.174866 0.217619 0.548538 -0.010319 -0.026582 1.429325 0.623132 0.519786 -1.415707 0.625427 0.485093 -0.124271 1.569359 -0.288070 -0.429064 -0.865984 1.663087 1.070863 0.449759 0.038097 0.049312 -0.188838 0.250537 0.644779 -0.253685 0.666510 -0.065068 0.686770 0.900850 0.625250 0.812909 -0.376207 0.344722 -0.634089 -0.023144 0.335952 1.360264 0.937291 -0.456937 -0.381692 -1.377159 0.677214 0.596306 -0.500957 -0.880791 -0.118247 -0.564422 -0.878460 0.332785 0.052459 -1.026125 -0.436632 -0.410792 0.997649 -0.288442 0.013203 0.373259 -1.532173 1.880015 -0.045462 -0.658379 0.075736 -1.163865 -1.461628 -0.864796 -0.422432 0.277879 0.032228 -1.193299 0.643220 0.330482 0.609800 0.031272 0.366837 -0.135501 0.910169 -0.133587 -0.777787 -0.851310 0.713379 -0.212783 0.862026 0.085785 1.106862 -1.676076 -0.616349 -0.029038 0.469340 0.008927 -0.753736 -0.516978 0.000400 -0.993530 -1.232374 -0.011423 -1.037892 -0.209216 -0.593455 -0.336133 -0.039286 0.387136 1.104116 0.601459 0.346124 0.546295 0.374570 0.451094 -0.115927 0.454752 -0.692725 1.273564 1.287118 0.576173 -0.661299 0.556174 0.222855 0.395121 0.089305 0.841885 -0.376053 -0.415579 -0.123737 0.829764 -0.644125 -1.028328 -0.966112 1.562688 -1.672306 -0.322241 -0.157612 0.693610 -1.923954 -0.207003 0.826253 -0.152055 -0.971689 0.319825 -0.992090 0.059961 -0.684953 -0.050668 0.581307 0.097685 0.659599 -0.222102 0.840277 -0.346376 0.227970 0.893576 -0.309265 0.072190 0.025566 0.848221 0.978647 -0.693714 -0.062534 0.293971 0.414421 -0.316020 0.259166 0.016344 0.106657 0.434137 0.314821 0.454570 -0.146393 0.532795 -0.093297 -0.820280 -1.312692 -0.226201 0.350803 0.051658 -1.392622 -0.069905 -1.177588 -0.539042 0.184568 -0.641509 -0.360653 0.652314 -0.028428 0.075291 -0.603836 0.903403 0.137227 -0.182568 -0.963481 0.315033 -1.043352 -0.056189 0.382814 0.213430 0.581411 -0.984265 
政 0.833708 -0.329069 1.182708 -1.062742 0.037585 -0.215165 -0.240998 -0.443234 0.276211 0.135261 1.236016 -0.238832 -0.290654 -0.849056 -0.466240 -0.828640 0.130034 -0.104013 0.424175 -1.743510 0.079308 0.870031 1.327122 -0.207737 0.393320 0.785808 0.824995 0.619872 0.018340 -1.448367 -0.821054 -1.483800 -0.620169 0.339879 -0.045712 1.319160 -0.926616 -0.434356 1.622549 0.414987 0.218902 1.625435 -0.022793 -0.624665 -0.155619 0.271105 -0.675677 1.397629 0.289578 -0.412468 0.380887 0.569989 1.090481 0.407023 -1.111547 0.527219 0.960779 0.425287 -0.874278 -0.319989 0.250042 -0.139613 0.829270 -0.047573 1.184444 1.333641 1.599368 -0.318635 0.166471 -0.024902 0.981978 0.397017 1.010952 0.809986 0.105104 -0.466647 -0.160569 -0.092612 -0.454463 -0.458880 -0.775693 -0.307479 -0.143144 -0.341045 -0.602194 -0.153453 -0.434483 -0.088185 0.789703 -0.775024 1.781666 0.624098 0.020513 0.541335 -0.555178 0.924424 -0.425078 0.044948 0.067093 -0.419117 -0.784032 0.062532 0.103611 -1.090593 1.038483 -0.403516 0.337620 0.274785 -0.972350 0.135737 0.180713 -0.115888 0.703664 0.548450 0.836410 0.661452 -0.603406 -0.749470 -0.274468 0.461910 1.020546 0.848257 -1.111895 0.800106 -0.414327 1.383803 0.228859 -0.352033 -0.354916 -0.172201 0.387597 -0.035248 0.829096 0.342715 -0.471647 -0.818166 1.335503 -0.660165 -1.186797 0.344340 -0.475477 0.392417 -1.071596 -0.741182 0.011195 0.892106 0.171142 0.902408 -0.471465 0.753376 0.542485 0.462398 -0.849282 0.038377 0.240527 -0.809743 -0.311457 0.110792 -0.384290 0.250807 -0.323036 0.936451 -0.014235 -0.348726 1.305640 0.147138 0.037054 0.463632 0.768938 0.584352 0.336337 0.788112 -0.023063 -0.735845 0.195627 0.475518 0.727574 -0.080463 0.599820 -0.539728 0.144847 0.263393 -0.362944 -0.607863 -0.785359 -0.083713 0.089767 0.140307 -0.435706 -0.738224 -0.455529 -0.223221 0.189127 -0.170853 -0.219966 0.360615 0.647901 -0.646636 0.609527 -0.628591 
军 -0.098615 0.144191 0.238783 -0.479661 -0.124240 -0.244615 -0.527155 -0.854652 0.531990 -0.407143 0.865983 -0.081010 -1.042671 -0.184196 -0.325308 -0.212844 -0.276416 0.427738 -0.271612 -0.381098 -0.702679 -0.548367 0.434730 -0.637410 0.775255 0.363616 0.657483 0.071396 0.407494 -1.055846 -0.568829 0.328634 -0.145531 -1.503509 0.428696 -0.473395 -0.652373 0.331508 0.596831 0.750758 -0.679853 0.182815 -0.874186 -0.780047 -0.092534 -0.491409 -0.338970 0.153350 0.008491 -0.495685 0.300075 -0.429200 -0.488112 0.722203 -0.083551 0.321624 -0.002561 -0.616260 0.354323 -0.135546 0.448853 0.574410 -0.232349 0.150519 0.069379 0.620311 0.971266 -0.356506 0.342311 0.125152 0.152821 0.581640 -0.483268 -0.875062 0.261110 0.470016 0.051995 0.481372 -0.768913 -0.762593 0.157517 0.788501 -0.480789 0.844156 0.375441 -0.034430 0.417409 -0.359429 0.257913 -0.092875 1.002998 0.460210 -0.601664 -0.373836 -0.760681 0.163827 -0.843905 0.357955 -0.458476 -0.187004 -0.108475 -0.341454 0.061017 -0.830586 0.452319 -0.565744 0.777234 0.227883 -0.548262 0.732548 0.531207 0.210310 0.957878 1.078215 0.698375 0.663453 1.323516 -1.433429 0.755270 0.555907 0.294689 0.535969 0.412287 0.286061 -0.257137 0.680402 0.823596 -1.138636 0.451524 0.081092 0.055130 0.294600 -0.026318 0.682099 -0.575779 0.311575 0.556506 -0.634791 -0.131340 -1.113080 0.334331 -1.647492 -0.178818 0.433596 0.165961 0.753545 0.321834 -0.663885 -0.470535 -0.159160 -0.091811 0.087189 -0.141789 0.150079 -0.023636 -0.686560 0.035032 -0.426667 -0.084427 1.309341 -0.348953 -0.071769 -0.201807 -0.918788 -0.510678 -0.221042 0.042972 1.214508 0.383131 0.026062 0.056848 0.672183 0.381976 0.405111 -0.579454 0.845332 0.561962 -0.932820 -0.133787 0.188004 0.295318 0.415100 -0.681928 0.328146 0.629577 0.155466 0.304091 0.915566 -1.139906 0.218373 0.171686 0.312496 -0.320239 -0.339764 -1.285131 0.381079 -0.656319 0.229389 -0.114007 -0.914125 
职位 0.458713 -0.127679 0.269938 -0.531672 0.069637 -0.260290 -0.134788 0.540103 -0.290910 -0.294149 0.579392 -0.659814 -0.031527 -0.177824 0.991441 -0.851056 -0.758542 0.639031 -0.246206 -0.046462 -0.142977 -0.437566 -0.058237 -0.170518 1.071850 -0.854408 -0.343881 0.408541 0.321090 -0.346938 0.116450 -0.169981 -0.931843 0.014770 -0.572663 0.730125 0.689733 -0.493818 1.831060 -0.725103 -0.494915 -0.984329 -0.228733 0.110494 0.731137 -0.447068 -0.493474 0.312021 -0.057383 -0.903378 -0.656907 0.228825 -0.400338 -0.025445 -0.038415 0.046368 0.574401 -0.408405 -0.472219 0.593868 -0.458322 -0.045742 0.662762 0.264877 0.378489 0.688613 -0.411265 0.255082 0.990092 0.796446 1.162807 -0.121260 0.041961 0.071104 -0.226329 0.048453 -0.205549 0.575486 -0.111164 -1.808751 -0.256795 -0.665562 -0.491575 -0.172940 -0.403022 0.689211 -0.062663 -0.422503 -0.294823 -0.311078 0.748226 0.479887 0.632323 -0.199798 -0.607403 0.817069 0.445389 0.408757 0.359113 0.121515 0.492399 -0.510443 1.138104 -0.085436 0.349562 -0.549020 0.551587 -0.111396 0.182543 0.144862 0.258856 -0.264551 -0.244039 -0.424414 1.740674 0.809026 0.095355 0.116347 0.075799 1.601843 0.907228 -0.421997 -0.283051 0.284730 0.299717 1.271481 0.029446 -0.128305 0.572360 0.237408 0.033666 -1.173344 0.449719 0.116375 -1.295008 0.046931 0.094142 0.586530 0.015359 -0.327746 -0.615683 -0.992031 -0.117302 -0.156011 0.478207 0.139185 -0.266545 -0.181748 1.508479 0.227983 -0.137730 0.461959 -0.221617 -0.458230 0.547777 -1.087559 0.335912 -0.878646 -0.387286 0.768676 0.744261 -0.852123 0.370324 0.111505 -0.371134 -0.113965 -0.145478 -0.586748 0.082531 0.605522 0.980496 -0.473541 0.120422 -0.575496 0.618101 0.150205 -0.248986 0.043165 -0.564809 -1.136379 0.107036 -0.054859 -0.957999 -0.312395 0.633283 -0.719786 -0.238075 -0.998008 -0.070567 -0.126418 0.293741 0.461757 -1.211747 0.010744 0.375992 0.761824 -0.460095 1.168782 0.120298 -0.868021 
食品 -0.146942 0.743451 1.052803 0.423701 -0.453226 -0.845585 -0.127167 1.022884 0.448004 -0.313775 -0.658221 0.429779 0.014602 0.156451 0.168096 0.632449 -0.329428 0.503401 0.451645 -0.016116 -1.209551 0.444062 0.436679 0.529270 0.452603 -0.322447 -0.508621 0.409787 0.926213 -0.720234 -0.166635 -0.077874 -0.020566 0.964998 0.051824 0.315506 0.553296 0.511760 -0.231211 0.374402 0.439328 -0.110036 0.582746 -0.996584 0.037254 -0.083142 0.628754 -0.409758 0.819608 -0.238732 -0.370133 0.124687 0.488128 -0.504061 -0.016880 0.017564 -0.286833 -0.351037 0.417390 -0.445786 -0.151325 -0.351421 -0.540218 -0.070735 -0.343747 0.759553 0.395387 -0.463784 0.644565 -0.563847 -0.749344 -0.281279 0.557191 0.529414 -0.240221 0.053864 -0.195184 -0.136636 -0.252162 0.449797 0.789066 0.814975 -0.252924 0.141948 0.020220 0.292935 0.041601 -0.123076 0.054133 0.146043 -0.176197 0.138610 0.957999 0.099215 0.030824 -0.384716 0.430926 0.593156 0.152702 -0.262731 0.047341 0.601655 -0.508550 0.624823 0.577469 0.371486 -0.097197 0.305663 -0.275582 0.128660 0.583393 0.641074 -0.578674 -0.380711 0.405887 0.260524 0.726916 -0.138399 0.076647 0.795177 -0.349042 -0.024806 -0.024061 -0.385399 -0.740770 0.230876 -0.161504 0.229633 -0.320106 -0.700731 -0.024288 0.189033 0.536068 -0.099485 -0.336109 0.582702 -0.067974 -0.137363 0.774635 -0.691313 -0.387225 0.265809 0.659978 -0.436083 0.083272 -1.063139 -0.011852 -0.017800 -0.260601 -0.494745 -0.364861 0.101068 -0.018837 -0.586566 -0.228818 -0.557699 -0.232855 -0.595847 -0.319185 -0.034366 0.042703 0.849874 1.034094 -0.441675 -0.491288 -0.176722 0.069690 0.250525 0.542194 0.046220 -0.006813 -0.001649 0.217973 -0.294184 -0.682662 -0.185148 0.679434 0.192843 -1.018865 -0.266574 0.273333 0.009854 0.129573 0.132904 -0.957356 0.323898 0.014473 -0.378427 -0.299629 1.074576 1.208535 -0.102568 -1.093911 -0.192009 0.270179 -0.724431 -0.577035 -0.248947 -0.177159 -0.879292 
场所 0.594661 0.936636 -0.143897 0.824907 0.391600 -0.129862 -0.231279 0.770933 -0.519384 -0.531235 0.032078 0.789543 1.214323 0.922657 -0.527668 -0.182314 -0.843651 0.586943 -0.372585 -0.199252 0.001886 -0.320897 0.258401 0.129831 0.646968 0.176998 -0.300522 0.631924 0.352519 -0.330811 0.340996 -1.258956 -1.160971 -0.319311 0.929711 2.407056 -0.801927 0.859040 2.122893 1.010818 -0.272512 -0.270254 0.160366 -1.291618 0.728173 0.479106 0.448911 0.985249 -0.332065 0.704698 1.115914 -0.605117 -0.077266 1.322321 0.417751 0.555068 -0.231656 0.041110 -0.958349 1.068811 -0.493254 -0.559148 0.427137 -1.236468 -0.335244 0.188841 1.255114 -0.162040 -0.112205 0.443536 0.605701 0.084297 -0.260683 -1.221252 -0.613763 0.229943 -0.065355 -0.248532 -0.467679 -1.068260 -0.137089 0.277112 -0.445686 -0.029075 -0.368024 1.332028 0.469439 -0.790238 -0.211858 -0.085811 0.058440 0.298107 0.824913 -0.498684 -1.071920 0.088917 0.596046 -0.204760 0.509526 1.443439 0.917802 0.126989 1.108881 -0.066253 -0.562098 0.154062 0.448624 -0.511247 -0.614798 -0.011452 0.056763 -0.847356 -0.347558 0.295303 1.897970 0.791056 0.859860 0.551107 0.310561 0.957640 0.649551 -0.036393 -0.218080 0.959723 -0.054731 0.354584 0.640288 -0.082969 -1.283566 0.870437 0.335819 -0.796469 -1.135082 -0.501804 -0.721026 0.571479 -0.051416 -0.580048 -0.352577 0.010811 -0.692701 -1.173134 0.023005 -0.079777 0.624629 -1.143386 0.530385 1.528745 1.924025 0.315856 0.183131 0.827292 0.137069 -0.726204 1.176814 0.323559 0.080918 -0.304393 0.225726 -0.338584 2.313807 -1.548663 1.086104 -0.421721 0.141754 -1.112546 0.712780 -0.977491 1.222228 -0.841336 0.019855 -0.821508 -0.222168 -0.489528 -0.092113 -0.437354 0.237187 -0.033264 0.156293 -0.612665 -0.581107 1.303924 -0.261740 -1.218103 -0.047677 -0.007297 0.755909 0.466108 0.496811 -0.049655 1.011183 -1.212404 -1.001838 1.000295 -0.029742 0.509620 0.305333 -0.230428 -0.546033 -1.019649 
材料 -0.507487 -0.015523 0.990071 0.766105 -0.842209 -1.043922 -0.083335 0.593532 -0.255149 -1.024020 -0.924892 -0.014058 -1.087059 0.080684 -0.476250 0.638434 -1.188378 0.586498 -0.190839 -0.047696 -0.839927 -0.060095 0.216238 1.411637 0.206159 -1.327658 -0.035379 0.673490 0.295711 0.121242 0.228153 -0.033913 0.032825 0.601897 0.430209 -0.872136 1.039931 0.403934 0.143994 0.067261 0.279999 -0.522326 -0.026071 -0.103349 -0.152348 -0.332659 -0.460987 0.166863 1.344381 0.046583 -1.139809 -0.211034 -0.000249 -0.429209 -0.597064 -0.317960 -0.716492 0.342572 -0.055597 0.120784 0.051007 0.142801 0.910778 0.127633 -0.779130 0.257957 -0.103695 -0.059264 0.385211 0.562089 -0.354822 -0.140311 -0.209102 -0.213658 -0.679396 -0.545451 0.295479 -0.740688 0.304040 -0.244005 0.668432 0.970583 -0.241456 -1.102641 1.336094 0.525181 -0.628293 0.339630 0.625761 -1.013554 0.683481 0.195194 1.026592 -0.340983 1.261858 1.184380 0.575127 -0.060515 0.560542 0.051993 0.465052 0.232614 0.428356 0.233959 0.423605 -0.645062 -0.384153 0.038846 0.578577 0.680694 -0.607794 1.188294 0.356100 -0.335148 0.195314 0.019185 0.326252 -0.952905 0.439346 -0.610797 0.340957 -0.590385 -0.481805 -0.801197 0.215447 -1.148610 0.063290 -0.806572 0.042012 0.071733 -0.155249 -0.218729 -0.124909 0.040630 0.347061 0.058833 -0.004456 0.378782 0.939716 -0.472787 -0.272701 -0.696578 0.965619 -0.104358 0.522254 -0.587028 0.662042 -0.315159 0.304273 -0.421054 -0.649912 -0.339505 0.486146 -1.016112 0.476299 -1.011982 -0.775886 0.291373 -0.183451 0.246835 0.715025 0.376676 1.275487 -0.085801 0.498690 0.204051 1.114120 0.455587 -0.224519 -0.516306 0.031281 -0.296960 -0.145295 0.283241 0.435828 0.125739 0.762826 0.240935 -0.332085 0.060610 -0.054577 -0.570665 -0.348468 0.197729 -0.526480 -0.119310 -0.486276 -0.808948 -0.796741 0.291315 1.181969 0.407607 -0.409609 0.362640 0.175702 -0.178249 -0.337939 -1.317674 0.417768 -0.846093 
疾病 -0.325675 -0.055741 1.496848 -0.770344 -1.336875 0.451801 -0.217716 1.046413 -0.322067 -0.606305 0.112734 0.583139 -0.075280 -1.200500 0.989768 0.929414 -1.017456 1.219156 -1.313628 0.653784 -0.635056 0.982931 0.230980 0.569400 -0.162020 -1.088615 -1.498721 -0.037020 -0.013928 -0.534312 0.203981 -0.780745 0.669567 0.443797 0.044541 -0.336918 -0.434160 -0.894095 0.155377 -0.183501 -0.465264 0.183774 0.481946 0.475267 0.093920 -0.192863 0.033313 -0.045429 -0.343071 -0.010567 0.875972 -0.091643 -0.062877 0.403937 0.314262 -0.138368 0.529574 -0.833706 0.677757 0.052360 -0.913518 0.081749 -0.348115 0.826633 0.833597 -0.574235 0.324311 0.097206 -1.021795 -0.507271 -0.092509 -0.637485 1.309237 0.550467 -0.324699 0.030686 -0.211945 0.619793 -0.572889 -0.784526 0.913258 0.215475 -0.275094 -0.633430 0.614243 0.187993 0.494485 0.721105 0.994490 0.356725 -0.761593 0.216620 0.497022 -0.547541 -0.391837 0.407023 0.288716 -0.046549 0.560669 -0.630525 -0.655484 -0.390915 0.548226 -0.550402 -0.404113 0.541783 0.608062 -1.066724 1.329445 1.011953 0.297441 0.726747 -1.379531 -0.041068 -0.570604 0.436269 0.639911 -0.351060 -0.673930 1.336927 -0.968884 -0.063077 -1.200030 1.696320 -0.629873 0.056235 -0.488889 1.075700 0.557797 -0.115049 -0.461766 0.626984 -0.614444 -0.158459 -0.001935 -0.469396 -0.967681 0.448591 1.569745 0.215416 -0.883195 0.282571 -0.071721 -0.450402 0.307210 0.943141 1.081978 -0.382559 0.161741 -0.793989 0.216892 0.018195 0.041741 -0.541584 -0.908322 -0.572305 -0.450850 -0.131584 -0.390363 -0.256249 -0.094791 -0.368700 -0.277172 0.114906 -0.057369 0.748270 0.030923 1.601543 -0.553046 0.198636 0.642592 0.015823 0.135330 0.520132 -0.336775 0.047254 -1.088235 -0.775112 -0.294177 -1.085627 0.153589 0.294938 -0.451379 0.621383 -1.094494 -0.199550 -0.053015 0.027538 -0.534339 -0.778670 0.329235 -0.319885 -0.950224 0.718047 0.414628 0.341438 0.042902 -0.078394 0.239956 0.088148 
医 0.245949 -0.195300 1.477571 -0.934588 0.397011 0.367516 -1.118282 0.261909 0.264413 -1.217787 1.582101 0.617743 -0.170943 -0.517733 0.782829 0.968438 0.279833 1.586920 -0.976837 1.435669 0.101211 -0.510781 0.654711 0.115554 0.669867 -1.486170 -1.313590 -0.044160 -0.244765 -0.428281 0.007167 -0.834024 -1.028626 0.515182 -0.242469 -0.553745 -0.738840 1.153324 0.594192 0.821995 0.459680 -0.128963 0.942988 -1.535597 -0.592399 -0.275488 -0.960616 0.016308 -0.335343 -0.812913 0.639992 0.272137 -0.120094 1.286328 0.527661 -0.498420 -0.079428 -0.274816 0.001617 0.246599 -0.685051 0.129259 -0.280165 1.466302 0.135411 -1.476953 0.116712 0.415082 -0.641461 -0.567719 0.528945 0.373845 0.474011 0.422673 0.435804 0.567912 0.054206 -0.053902 0.208356 -0.046132 0.111034 -0.257766 -0.604890 -0.553239 -0.091412 0.049926 0.328662 -0.422047 0.218024 -0.611158 -1.343289 -0.004407 0.383142 -0.561892 0.610521 -0.595512 0.230432 -0.463976 -0.879034 -1.269637 -0.592112 -0.276039 0.642439 -0.054186 0.300210 -0.478915 0.943669 -0.305076 -0.385766 0.689741 -0.062748 0.506033 0.552173 0.503515 -0.533502 0.923219 0.336248 -0.190586 -1.092414 1.355010 0.939171 -0.436356 -0.587174 0.892380 -0.284481 0.343789 -0.125948 0.196805 -0.172351 -0.496254 -0.700128 -0.028159 0.557385 -0.600562 1.443073 -0.885891 -1.445531 -0.670382 1.407069 0.490459 0.549719 -0.491089 -0.553438 1.535444 1.486573 -0.058195 1.116866 0.111166 1.398035 -0.151903 0.010154 0.237425 0.511302 -0.104827 -0.625230 -0.559510 -0.683083 0.127433 0.052062 0.005892 0.730642 0.709048 -1.051678 -1.005653 -0.677577 -0.006799 0.588594 1.386479 0.110972 -0.816449 0.160186 -0.215304 -0.168203 0.952272 0.596153 0.116601 -0.290106 -0.727334 -0.518888 -0.307115 0.076919 -0.099432 -0.088655 -0.864275 -0.574232 0.906072 -0.263916 0.324797 0.099488 0.244825 -0.460543 -0.648729 -1.084429 0.286298 -0.317723 1.057142 -0.005093 0.123634 0.876081 -0.595085 
商业 0.889593 -0.409616 0.944827 -0.101507 0.405537 -0.787013 -1.225148 -0.349666 -0.269881 -1.217378 -0.311780 0.392830 0.471568 -0.544093 -0.394320 0.437570 0.170335 -0.303942 0.025315 -0.356241 -0.077179 -0.249428 0.751157 0.647950 0.335138 0.520822 -0.937397 -0.550028 -0.852737 -0.352513 -0.220987 -1.079166 -0.259089 -0.228880 -0.549135 -0.814460 -0.850226 -0.056914 -0.011985 -0.476519 0.334929 0.117573 0.077849 -0.164526 -0.167868 0.079846 0.822102 0.524319 0.486379 -0.296557 -0.707509 0.063729 0.756003 -0.245853 -0.900117 0.026451 0.424152 -0.587349 0.768477 0.359999 0.007070 0.656485 0.754380 0.598302 0.115950 0.096417 1.139302 1.421522 -0.509460 0.620363 0.844270 -0.309908 0.175871 0.620649 0.198755 -1.008937 0.078382 -0.074513 -0.286299 -0.378852 -0.371419 -0.407138 -0.937492 -0.050534 0.865155 -0.037942 -0.438432 -0.272001 0.072775 -0.764277 0.875834 -0.077521 -0.786678 -0.439081 -0.247918 0.470864 -0.312304 -0.831091 -0.143905 0.564105 -1.163671 0.722631 0.979939 0.820931 0.398360 -0.023739 0.175865 -0.216204 -0.495501 1.530328 -0.661576 0.290092 -0.132114 -0.424484 -0.520575 0.970328 0.233111 -0.011644 0.489308 -0.154575 0.552005 0.491453 -0.065618 0.090665 -1.206919 0.522572 0.537560 -0.333711 -0.765251 -0.297216 -0.929257 -0.525695 -0.227367 0.205760 -0.121809 0.336025 0.603778 0.073564 -0.003811 -0.154779 0.514191 0.225613 1.157673 -0.412944 0.243068 0.074272 0.029736 0.709537 -0.673009 -0.353777 -0.731721 0.463600 1.115128 -0.413963 0.575571 -0.871275 -1.077711 0.361258 -0.475895 0.419903 -0.518680 0.634650 0.186190 -0.806546 -0.229532 0.912873 0.525210 0.739022 -0.466867 -0.673966 -0.048529 -0.203621 0.107732 0.745560 0.635098 1.382501 0.466348 0.241946 -0.544563 -1.079514 -0.190523 0.580123 0.263896 -0.736298 -0.695918 0.457058 -1.014344 0.444181 -0.352375 0.213653 1.237483 0.354806 -1.267549 -0.037301 0.221192 0.072992 -0.256073 -1.286451 -0.055045 -0.849309 
能 0.450504 0.227949 0.582605 -0.433445 1.171569 -0.551814 -1.065380 -0.202603 0.222350 0.149644 -0.329697 1.043263 -0.683742 -0.944184 -0.865704 -0.081115 0.463050 -0.383172 -0.481620 0.499324 0.249884 -0.451054 -0.029139 0.226886 -0.529347 -1.200005 -0.469631 -0.325834 0.172030 -0.186726 -0.018742 -1.043598 -0.556224 0.132469 0.306937 0.662690 -0.301612 0.406768 0.368713 0.615872 -0.527577 -1.190209 0.034585 0.018754 -0.155489 0.525259 0.544905 0.236789 0.934898 -0.334937 -0.057792 0.084669 -0.062870 0.692277 -0.096594 -0.020669 -0.681219 0.255651 0.334931 -1.032038 -0.005181 0.209250 -0.658885 0.356941 0.285047 -1.123636 0.066599 0.735290 -0.109783 0.075443 -0.317605 -1.222914 -0.807388 -0.844756 0.314006 0.661435 -0.898329 0.269404 -0.726401 -0.670504 0.106791 -0.272350 0.143872 -1.532789 -0.040633 0.404561 0.340185 -0.365883 -0.050073 -0.587902 -0.211020 -0.694197 -0.698966 0.343433 -0.504241 -0.616507 0.705034 -0.184095 0.555220 -0.165728 -0.250832 0.032007 1.117738 -0.140292 0.002488 -0.368334 1.824224 0.792205 0.471117 0.936006 -0.473328 0.431450 -0.292651 -0.377141 -0.177110 -0.087069 0.263647 -1.007952 0.439305 1.101626 -0.890366 -0.904260 0.318316 -0.249250 -0.131700 0.718463 0.166657 -0.069276 -0.030575 0.402956 -0.375659 0.141257 -1.042348 -0.063193 -0.045038 0.220103 0.412174 -0.026018 0.658296 0.798583 -0.550033 -0.119997 -0.720046 0.317215 0.539764 -0.016165 -0.903616 0.302572 0.342215 0.599401 -0.548129 -0.812967 -0.753223 -0.663614 0.556272 0.678271 0.709136 -0.707073 0.339725 0.819502 0.073174 -1.196041 -1.630856 -0.676897 -0.134636 0.264026 0.909909 0.356523 -0.556758 -0.492988 0.600316 0.600623 -0.806710 1.208292 -0.511457 -0.568768 -0.846409 0.195110 -0.558430 -0.389862 -0.198987 0.035688 -0.057590 -0.312913 0.579789 0.018604 -0.890448 0.365664 0.465116 0.119861 0.263436 -0.842574 0.386540 -0.379210 0.469486 -0.140970 -0.791760 0.662030 0.073221 -0.728461 
事务 0.011789 0.518537 -0.068172 0.656266 0.215003 -0.676241 -0.157828 -0.015560 -0.020264 0.098291 0.866502 -0.936530 0.894129 0.949720 -0.984748 -0.025565 -0.990744 0.667628 -0.191084 0.262638 -0.042168 0.634637 -0.006770 0.375938 0.806954 0.321762 0.546086 0.243468 0.282708 -0.922820 -0.108469 -1.052695 -0.432390 -0.498336 0.364215 0.145398 -0.308461 -0.576786 1.040332 -1.108885 0.101455 -0.040671 -1.184288 -0.060486 0.514267 0.378593 0.138279 0.485443 -1.213637 -0.262722 0.199718 -0.146784 0.411680 0.505051 0.428831 -0.916807 0.273443 -0.060418 -0.538411 -0.178696 -0.643863 -0.576600 -0.412735 -0.572620 0.470819 1.060082 0.916085 0.127796 0.189924 -0.181837 0.428070 0.997531 0.088230 0.070337 -0.150561 -0.962115 0.237507 0.183525 -0.146576 -1.534595 -0.473508 0.276650 0.101341 -0.381991 0.006816 1.334071 -0.303250 0.006140 -0.644888 -0.463441 1.119312 0.196685 0.168079 -1.123334 -0.794232 0.544582 0.507106 0.370733 0.484486 1.367354 0.556472 0.172480 -0.330633 -0.401506 -0.007312 -0.570745 -0.293714 -0.565561 -0.029517 0.274911 0.373183 -0.646959 -0.783592 0.193780 1.241673 -0.507835 0.207258 0.420005 0.291060 0.348360 -0.242002 -0.847557 0.441835 -0.061819 -0.371388 0.620693 0.117525 -0.452052 -0.689224 0.167931 -1.199593 -0.558753 -0.551970 0.236335 -0.266930 -0.058867 -0.151392 0.252807 0.029444 0.341935 -0.323452 -1.299443 0.022180 -0.551282 0.425698 0.440138 0.695091 0.545515 0.919004 -0.484307 -0.173434 0.611692 -0.274480 0.802185 -0.003508 -0.985719 0.438429 -0.052214 -0.301386 -0.248707 1.226244 -0.575808 0.582159 -0.184306 0.049629 -0.371485 0.803297 -0.626487 0.905574 0.363380 -0.087100 0.329352 0.885140 -0.302281 0.459656 -0.368736 0.260307 -0.059771 0.221843 -0.040916 0.224648 0.550517 -0.894306 -0.748080 -0.276123 -0.088522 -0.698665 -0.185429 0.638857 -0.924059 0.149321 -0.394082 -0.537517 1.007562 0.347892 0.247224 -0.097138 -0.441534 0.598153 -0.628038 
家庭 0.607050 -0.078045 0.039901 -0.365609 0.128291 -0.417837 0.270335 -0.955774 -0.015392 -0.907160 0.245986 0.822021 -0.590463 -0.606944 1.098090 -0.203300 0.037747 1.291286 0.669920 -0.028070 -0.020439 -0.309563 0.667045 0.050541 0.721136 -0.724112 -0.775370 0.434465 0.338028 0.298718 0.583038 -0.260385 0.074699 -0.520352 -0.781725 0.505193 0.200682 0.294091 0.926116 -0.321171 0.640445 -0.029412 -0.220641 -0.834675 0.530323 -0.847420 -1.155286 -0.121837 0.874408 -1.569550 -0.039764 0.539826 0.541818 0.083872 -0.861944 0.581894 0.913135 -0.015587 -0.724835 -0.329635 -0.078509 -0.284038 0.309262 0.380922 0.182785 -0.559961 -0.577012 0.484849 0.044559 0.405702 1.101640 -0.465013 0.425152 0.098140 0.439616 0.172444 -0.352037 -0.268708 -0.132923 0.302617 -0.652255 -1.343210 0.355148 -0.313961 -0.555408 0.369260 -0.686333 -0.429439 0.212843 0.510674 -0.037491 0.080955 -0.302786 -0.174125 -0.295628 -0.308789 0.426418 -0.743653 -0.814761 -0.347180 0.454776 -0.599906 1.169256 0.504658 0.130115 -0.052005 0.906900 0.479553 -0.368032 0.587909 -0.311201 -0.204519 -0.226781 -0.163902 1.345290 1.045465 0.005115 -0.549039 0.146222 0.571380 1.101625 0.773856 0.535158 -0.120516 -0.143282 -0.015325 0.126586 -0.674663 1.041896 0.920477 -0.383710 -0.996352 -0.091410 0.198701 -1.403433 -0.825569 0.591001 -0.039351 -0.023992 -0.835826 -0.100965 0.433682 0.214258 0.279992 0.337440 1.110556 -0.171910 -0.477218 0.615342 0.552480 1.191016 -0.605457 -0.354174 -0.322826 0.493883 -0.496611 -0.286967 0.034208 0.145745 -0.553401 -0.012413 0.884606 -0.524084 -0.604785 -0.222827 0.543418 -0.858813 0.032464 -0.511731 0.383107 0.830532 0.441595 0.169238 -0.562678 -0.030297 -0.338266 -0.223148 -0.382284 -0.204242 -0.534680 0.014763 -0.318169 -0.595296 -0.245151 -0.052714 0.458024 -0.182499 0.469827 -0.521240 0.201630 0.887781 0.683898 0.278282 -0.378635 0.368088 0.401389 0.361090 -0.020943 0.069851 0.525613 
烹调 0.065667 0.381262 0.667276 0.517337 0.362228 -1.104551 -0.192241 0.309496 0.408957 -0.003927 -0.344757 0.446084 -0.213822 -0.185150 -0.020525 0.707249 0.045766 0.375845 -0.160171 -0.519695 -0.604127 -0.117758 0.715564 0.239560 0.140944 -0.583714 -0.344435 -0.113439 0.595771 -0.045589 0.331728 0.117061 -0.083430 0.738050 0.700526 -0.386905 0.291638 0.616512 0.002923 0.366149 0.218021 0.377738 0.266751 -0.773620 -0.079226 -0.392898 0.049252 -0.134187 0.401897 -0.366681 -0.464330 -0.460900 1.046936 0.053089 -0.329408 0.327137 -0.472579 0.326770 0.110840 -0.533611 -0.167219 -0.669732 0.110781 0.061706 -0.306913 0.352169 0.404451 0.233421 0.092799 0.027756 0.142778 -0.455730 -0.061567 0.214113 0.188392 0.511270 -0.399718 -0.179802 -0.620290 0.329323 -0.282583 0.398020 -0.551210 -0.291477 0.556397 0.299611 -0.394689 -0.481286 0.225408 -0.724849 0.434763 0.103202 0.680226 0.464900 0.280931 -0.533821 0.421063 0.308383 -0.401605 0.308563 -0.092938 0.428404 -0.113674 0.270999 0.669864 -0.439756 0.508863 0.723220 -0.452279 0.977693 0.194324 0.210247 0.471051 -0.460439 0.091418 0.634309 0.826952 -0.798606 -0.572403 -0.162969 0.708008 -0.335429 0.103303 -0.877549 -0.499720 0.128202 -0.270159 -0.610304 -0.328053 -0.457267 -0.601167 0.684970 0.325762 -0.150623 0.263278 0.155781 0.192653 0.147672 0.447018 -0.282961 -0.199406 0.113327 0.093884 -0.095350 0.204906 -0.415652 0.159634 0.317956 -0.368505 -0.311170 -0.376283 -0.478420 -0.127614 -0.172455 0.558060 -0.780697 -0.293231 -0.040678 0.485971 0.085914 0.411048 0.253294 0.195354 -0.641656 -0.118031 0.012367 -0.076986 0.047091 0.126096 -0.357547 -0.314710 0.412023 0.087550 0.171154 -0.503037 -0.186008 0.681217 0.395446 -0.754354 0.137571 -0.785074 0.000636 0.199030 -0.149946 -0.489721 -0.222738 0.212379 -0.191347 0.310513 0.697709 0.333283 0.238927 -0.468707 0.494171 -0.177941 -0.303292 -0.374280 -0.001101 -0.253917 -0.661569 
市 0.111574 -1.123763 -0.184378 -0.498341 0.714601 0.006107 0.128536 0.117868 0.886514 -0.761719 0.070136 0.127519 -0.680739 -0.673036 -0.868483 0.319160 -0.318335 1.146486 0.336410 -0.536383 -0.379071 0.882943 -0.199272 0.273649 -0.903407 0.889457 0.790992 -0.734713 -0.571401 0.133090 -0.270886 -0.901782 -0.392107 -0.471934 0.159075 1.105833 -1.037193 0.660581 0.760147 0.683476 -0.719836 1.126668 -0.198083 -0.359159 0.687258 0.369562 -0.335173 0.203881 0.265659 0.313818 1.091709 0.556251 0.401954 0.501991 -0.887494 0.510419 0.859413 -0.277673 0.030589 0.479346 0.173426 -0.182664 0.088392 -0.194149 0.139290 0.895279 1.000618 0.050596 0.082666 0.592934 0.212989 -0.218265 -0.862064 -1.023097 -0.078463 -0.846360 -1.250654 -0.791675 0.032478 -0.444674 -0.226605 0.199094 -0.628894 -0.181388 0.257602 0.301744 0.459786 0.054520 0.774495 -0.521236 0.597764 0.143327 0.746542 -0.173672 -0.833384 0.780523 0.403157 0.649728 0.457301 -0.545380 0.380968 0.072863 -0.536554 -1.111010 -0.939495 0.301590 1.370803 0.363099 -0.529981 0.000844 0.531407 0.072322 0.145216 -0.207211 0.309676 0.822583 0.267331 0.000282 0.831663 -0.445446 0.763739 0.454891 -0.109709 0.864210 -0.387177 0.916848 1.084059 -0.169457 -0.106664 1.071642 0.245206 -0.464147 -0.196905 -0.321462 -1.185593 -0.957876 0.407741 -1.405774 -1.070767 0.047500 -1.026836 -0.128130 -0.479671 -0.218789 0.040779 0.143559 0.419409 0.187982 0.108067 0.725393 0.001102 1.140348 -0.105889 -1.208962 -0.203093 -0.220525 0.508088 0.933439 -0.843294 0.596208 0.668933 -0.912027 0.078855 0.224889 0.701621 -0.382696 -0.050239 1.236952 0.909945 0.206192 -0.748934 -0.636994 0.095361 0.012389 -0.195872 0.315932 1.119736 0.082729 0.922767 -0.244711 -0.113440 0.973415 0.697875 -0.417099 0.329001 -0.066357 0.910117 0.428826 -0.337662 -0.272135 -0.564559 -0.354006 -0.853417 0.095337 -0.714804 0.121271 -0.851920 -0.935430 -0.409133 -0.522235 
知识 0.740165 -1.164423 -0.331287 -0.647238 0.600350 -0.494914 -0.408809 0.742757 -0.354472 -1.141358 0.915316 -1.152540 0.351471 0.476573 -0.105603 -0.050268 -0.615083 0.545877 0.783434 0.881952 1.548492 0.341138 0.674762 -1.398023 0.031023 -0.576225 -0.836109 -0.057529 0.836849 1.085546 -0.332212 -0.895307 -0.676597 0.370773 0.072248 -0.468527 -0.443473 0.219592 0.385489 -0.437354 -0.266132 -0.603904 -0.524182 0.218780 1.176628 0.056200 -1.132692 -0.041438 -0.335486 0.552152 0.875747 -0.574053 -0.408749 0.639867 0.839285 -0.874868 0.770736 -0.380319 -0.551353 0.335261 -0.740030 0.112269 -0.118162 -0.037302 -0.886687 -0.590076 -0.658126 0.265845 0.085984 -0.093202 0.207444 -0.825986 0.333886 0.123001 -1.096413 -0.547584 0.447746 0.338221 -0.134267 -0.685921 1.222850 0.247910 0.521356 0.144456 0.312099 0.154901 0.145294 0.745277 -0.382566 -0.375761 0.457117 -0.319859 0.327332 0.028423 -0.351243 0.344190 0.197082 0.857345 0.406557 0.311466 -0.371326 0.079258 -0.040019 -0.049164 0.034474 -0.509106 0.365195 -0.246382 0.000656 0.240354 -0.233581 0.045768 -0.103873 -0.205759 -0.214393 -0.058096 0.689319 0.248087 0.013437 0.509141 1.219433 -0.146164 0.314936 1.142402 0.409750 -0.017280 0.585989 0.340420 0.547098 0.143291 -0.562337 -0.210479 -0.797695 -0.463381 0.221670 -1.026115 0.126634 0.603533 -0.247000 0.670284 -0.731455 -0.676230 -0.791568 -0.452007 0.381346 0.511133 0.933728 0.605377 0.210128 -0.068367 -0.778502 0.023089 -0.985396 0.506686 -0.236195 -0.424776 0.438379 -1.125890 -0.128109 1.538050 0.415184 -0.310617 -0.480676 -0.232406 -0.242568 -1.113752 0.571705 0.169626 -0.035461 -0.102809 0.376256 0.366481 0.665974 -0.021780 0.191944 -0.339209 0.073983 0.759874 -0.108668 -0.260572 -0.237412 0.347641 0.132584 -0.351388 -0.251599 -1.414132 0.019765 -0.358641 0.473209 0.365868 0.226510 -0.796142 -0.139310 1.280517 0.689396 0.323350 -1.062040 1.021946 -0.107243 -1.014930 
功能词 -0.602118 -0.228462 0.297428 -0.155093 -0.332897 0.034451 0.059468 0.304795 0.280935 0.629846 -0.384346 0.342940 -0.177243 -0.439783 -0.197154 0.058753 -0.018013 0.253132 0.343488 0.051085 -0.134926 0.426421 0.186855 0.540764 -0.290829 -0.534025 -0.162700 0.257408 0.553925 -0.358855 -0.047570 -0.091255 0.465016 1.082101 -0.283230 -0.087110 -0.067751 0.024265 -0.633072 -0.304713 0.296001 0.520522 -0.043885 -0.424321 0.419240 -0.332659 0.424171 -0.760300 0.027384 -0.159795 0.006092 0.301092 0.337251 -0.119372 0.011488 -0.634763 0.343298 0.463760 0.052628 -0.902101 0.077213 -0.195985 -0.129017 0.092851 -0.263192 0.600881 0.006687 -0.185867 0.070866 0.018944 -0.065922 -0.067931 0.252737 0.314185 -0.026761 -0.324698 -0.845774 -0.067456 0.024032 0.490365 0.218367 0.055377 -0.171629 0.165799 -0.257715 -0.099653 0.156768 -0.030151 0.091343 -0.049725 -0.016832 -0.319773 0.052923 0.236884 0.195949 -0.161523 0.724882 0.283472 -0.534686 -0.725017 0.077236 0.029780 -0.809044 -0.023081 -0.164577 0.944603 -0.351796 0.266700 -0.384520 0.146797 0.442635 0.452035 -0.208081 -0.295224 0.006924 -0.129572 0.628278 0.376540 0.145584 -0.289358 0.162699 0.029369 -0.285276 -0.042865 -0.218744 0.378687 0.120683 -0.096351 0.315304 -0.099248 -0.021345 0.329281 -0.070402 -0.092110 -0.156557 -0.090056 0.008026 -0.165927 0.341042 -0.472765 0.139567 0.315768 -0.039095 0.060569 -0.309840 0.168396 -0.359224 0.201867 -0.747046 -0.364756 -0.332693 0.198606 0.232608 -0.265847 -0.089982 -0.180333 0.201267 0.024966 -0.098603 -0.670629 -0.046183 0.195520 0.032351 0.126618 0.206562 -0.158471 -0.748591 -0.223242 0.107751 0.211583 -0.168556 0.138710 0.534352 -0.054760 -0.752566 0.374476 0.118382 0.443122 -0.637370 -0.252021 -0.041967 0.058890 0.338621 0.401878 -0.192630 0.023377 0.017742 -0.036009 0.540165 0.310799 -0.554646 -0.126736 -0.049469 -0.366590 0.551863 0.016413 -0.361307 -0.030429 0.002918 0.343630 
女 0.620482 -0.981506 0.025001 -0.107231 1.263295 -0.078300 -0.049165 0.388245 -0.468690 -0.974581 0.341213 0.335608 0.002872 0.241120 1.082271 0.238609 -0.417401 0.884017 0.416902 -0.131701 0.080064 -0.734131 0.593201 0.067777 0.655654 -0.419245 -0.543653 -0.058073 0.929145 0.195079 0.743350 -0.600033 -0.410938 0.587945 -0.583097 0.839405 -0.012509 -0.536662 0.355420 -1.116792 0.210087 0.654044 -0.113541 -0.967587 0.401384 -0.321822 -0.569226 0.988615 -0.000352 -1.664796 -0.430924 0.154175 0.840796 0.025787 0.283744 0.383719 0.214954 0.302193 -0.047859 -0.203468 0.004462 -0.605393 -0.295440 -0.134914 -0.452538 0.463497 0.632020 0.746819 0.664426 0.473810 0.314721 -0.467159 0.428454 0.210579 -0.221816 0.564886 0.155095 -0.286802 1.153037 0.083414 -0.386338 -0.992899 -0.276195 -0.280460 0.493637 0.070833 0.321605 0.286830 0.394312 -0.423016 -0.386910 -0.049890 0.823059 -0.637462 0.732701 -0.198398 0.314992 0.415782 -0.311512 0.921931 -0.119702 -0.160830 0.423949 0.704001 0.458719 -0.632218 0.327949 0.274895 -0.141840 0.866996 0.179762 -0.831023 -1.140834 0.213732 0.817535 0.438132 -0.144505 -0.012927 -0.955688 1.161360 0.458355 0.501057 0.670047 -0.268830 0.112048 0.553393 -0.913864 0.181027 -0.690513 0.552605 -1.013385 -0.271142 0.534466 -0.784185 0.079581 -0.850527 0.425799 -0.020938 -0.408527 -0.851940 -0.900777 0.473424 -0.064613 0.499733 0.065863 0.487510 0.498107 0.680070 0.883448 -0.744528 0.892958 -0.292952 0.115091 0.158896 0.497370 -0.114062 -1.227486 -0.029463 -0.291689 0.177713 -0.426694 0.268348 -0.208151 -0.495532 0.960383 0.763659 -0.102079 -0.281963 0.642039 -0.002606 -0.335857 -1.013517 0.051155 -0.124539 0.294600 -0.671136 -0.532972 0.031652 0.492589 -0.160006 0.334312 0.743728 -0.516011 0.288300 -0.830056 1.000032 -0.049217 0.469771 -0.392884 -0.118158 1.271761 0.431981 -0.462284 -0.020657 1.058693 0.322286 -0.059094 0.407580 -0.218113 -1.136530 
物质 -0.266889 -0.182957 0.004216 0.699706 -0.631208 -0.415037 -0.640990 0.608762 -0.054187 0.441179 -0.885349 -0.282001 -0.541631 -0.182367 -0.898686 1.194305 -0.511128 0.600999 0.610629 0.681655 -0.425160 0.519485 0.290804 -0.297414 0.240474 -0.488916 -0.614298 1.176570 0.564989 1.053318 -0.186393 -0.182918 0.563912 0.414809 0.818671 -0.180333 0.478750 0.642193 -0.114260 -0.367310 1.165325 -0.266695 -0.010347 0.330650 1.314543 0.059116 0.025668 -0.206494 -0.289406 0.667908 -0.428946 0.051211 -0.902976 -0.055189 0.205903 -1.458206 -0.228805 0.141233 0.189245 -0.003208 0.586369 0.802759 -0.524040 0.663177 -0.014295 0.105990 -0.866840 -0.559266 0.204259 -0.331067 -0.866728 -0.149562 -0.856168 -0.657266 -0.136097 -0.051724 0.495763 -0.148398 0.659975 0.097721 1.651296 0.488835 -0.146869 -0.671629 0.195690 -0.734749 -0.249748 0.257797 0.811108 -0.938123 0.368084 0.556519 0.355629 -0.235882 0.726888 1.025633 -0.541060 -0.251611 0.201226 -0.598019 -0.203383 0.646328 -0.379426 -0.259171 -0.102690 1.212017 -0.006564 -0.082801 0.471689 -0.975456 0.104937 0.585141 -0.334673 -0.690551 -0.601031 -0.350340 -0.267535 0.522731 0.638323 -0.104048 0.802259 -0.289434 -0.425374 -0.081063 0.005144 -0.562909 -0.082789 0.571316 0.517366 -0.307217 -0.452424 1.228469 -1.016449 0.560573 -0.283265 -0.245910 -0.834321 -0.287650 -0.319576 0.817355 -0.180368 0.467239 -0.413787 -1.596936 -0.314323 -0.021806 -0.632716 -0.624614 0.288014 0.222909 -1.748323 -0.121467 0.270513 -0.786477 -0.661386 0.128740 0.292114 -0.554866 -0.226149 0.777388 -0.500322 0.813913 -0.010808 -0.813418 -0.146009 -0.186177 0.838100 0.672695 0.671662 0.707982 -0.260253 -0.146908 0.007076 -0.715403 -0.183391 -0.175757 -0.259125 -0.556200 -1.205695 -0.713871 -0.588210 -1.486134 0.601649 -0.586061 -0.753529 0.529738 -1.083856 -0.583904 -0.963044 0.062852 0.699936 0.669408 -0.070570 -1.026167 0.906672 -0.561230 -0.070215 0.032210 0.004300 -0.140226 
设施 0.197393 0.331396 0.547189 0.082459 0.225406 -1.031401 -0.391416 0.455670 -0.483416 -0.632222 -0.813873 0.053594 0.090678 -0.321402 0.723809 -0.381565 0.417792 0.618693 -0.555486 0.822036 -0.639177 -0.199975 0.309897 -0.912365 -0.112101 0.014108 0.438133 0.668976 0.555610 0.753176 -0.503037 -0.053936 -0.804938 -0.423597 0.460377 0.618572 0.742848 -0.322183 1.245052 -0.150775 -0.946347 0.005479 -0.023850 -0.595444 -0.415245 -0.135517 -0.616302 1.803590 0.116668 -0.289766 0.809150 -0.252873 0.258419 0.660241 0.340330 0.361711 -0.160140 0.032329 -1.158498 0.116210 -0.416946 0.301078 0.463721 -0.496944 0.011880 0.309021 0.184522 0.216815 -0.185233 0.144753 -0.325093 -0.040499 -0.018275 -0.736461 -0.223336 -1.088309 0.451531 -0.009768 0.571699 -1.122501 0.317933 0.406642 -0.553776 0.602830 0.426467 0.704066 -0.065807 -0.386749 0.134037 -0.377830 -0.334466 0.215051 0.864456 -0.302849 -0.544826 1.323202 -0.769027 0.621762 0.080456 1.311356 0.525483 -0.310529 0.542852 -0.050775 -0.249014 0.773299 0.326852 -0.198839 -0.005699 -0.172659 0.157092 0.630703 0.323565 1.166735 0.348492 0.557857 0.360205 0.444845 0.078413 1.726093 -0.178006 1.391727 -0.064677 -0.717561 -0.490683 0.224597 0.136726 0.067405 -0.842105 -0.061054 0.479685 -0.133989 -1.272734 1.210551 -0.937245 0.541128 0.048082 -0.760671 0.106993 -0.619297 -0.042636 -0.485863 -0.392406 -0.371800 0.671191 -0.153428 -0.098990 0.978667 1.060021 -0.302732 0.388321 0.834924 -0.101962 -0.671881 0.067008 0.900244 0.140582 0.822963 -0.005914 0.943548 0.814934 -1.247764 0.651087 -0.656566 -0.444617 -0.837561 0.934256 -0.880312 -0.264979 -1.229866 -0.175794 -1.014049 -0.551985 -0.661019 1.391712 -0.413605 0.110326 0.202892 -0.141266 -0.765077 0.356862 0.667195 -0.134749 0.661166 0.602650 0.390566 -0.834440 -0.035887 -0.059178 0.124784 1.269895 0.103655 -0.262204 0.367834 -0.142288 -0.255878 -0.121681 0.216433 -0.092243 -0.836110 
国家 0.429039 -0.405987 0.524344 1.094460 0.540407 -0.594528 -0.177966 -0.399473 -0.491343 -0.736737 1.363597 -0.784188 -0.886659 -1.981604 -0.001262 -0.692843 -1.030422 -0.095539 0.748613 -0.860488 0.055345 0.107996 -0.966406 1.593317 -1.162125 1.162456 0.065768 0.058580 0.027149 0.495704 -1.666192 -1.628017 0.421522 -1.910813 -0.049515 -0.660225 0.163791 -0.739790 0.685373 0.294873 0.958612 1.651830 -1.104352 -1.039977 0.148366 0.590210 0.016487 0.005408 -1.230546 -1.413326 0.197660 1.811832 -0.575590 -0.311933 0.162308 1.214866 -0.000580 -0.091171 -0.881058 -0.139405 -0.251152 -0.262073 0.913442 -0.770978 0.190033 0.064276 0.422342 2.685907 -0.100847 -0.198434 1.724281 0.648711 -1.176236 -1.061577 -0.400426 0.923136 0.550682 -1.564808 -0.466384 -1.609751 -0.703784 0.104649 -1.642421 -0.695373 0.836683 1.642799 -1.293593 -0.725125 0.810676 -0.838711 0.296499 -0.700190 -0.447998 -0.586674 -0.209266 0.798831 0.870485 -0.769981 -0.330131 -1.617425 0.957004 -0.263260 0.351200 -0.586451 -1.024943 -0.679180 1.412704 0.935166 -0.937463 0.009571 -0.632262 0.084657 0.531748 -0.916489 0.013727 0.393332 -0.231424 -0.603784 0.689642 -0.581339 0.873634 -0.360692 0.097727 -0.035216 -0.793699 0.814227 1.496912 0.023884 -0.504624 0.786014 0.243938 -1.318586 -0.423663 -0.396753 -0.565124 -1.732858 1.681148 -1.417411 -0.178743 -0.830889 -0.056203 -1.254231 0.946246 -0.782594 0.663758 0.136629 -0.640899 -1.086874 0.767595 0.929116 0.584013 -0.577172 0.224317 -0.549894 -0.893398 -2.112759 0.358015 0.423776 -0.918000 0.576808 1.467652 1.293571 0.906973 -0.968699 1.756323 0.588786 -0.557763 0.901187 0.409937 -0.857265 -1.552064 0.602010 0.626901 -0.556523 0.838073 0.030375 0.723009 -0.228986 1.098908 0.336749 0.163957 -0.072892 -1.014693 -0.727127 -0.117760 -1.163983 0.293441 -0.389184 0.804379 -1.332762 -0.610863 0.653204 -1.332022 -0.538322 -1.428870 0.289663 -0.956078 -1.086944 -0.741891 1.060295 
语文 0.259815 -0.252418 0.359300 -0.128163 0.118332 -0.167255 0.723938 -0.847971 -0.457491 0.227203 -0.220619 -1.054023 -0.473917 0.080820 0.087646 -0.462949 1.170114 1.017223 -0.039126 0.174048 0.414326 -0.315828 -0.971943 -0.139670 -0.357989 1.012765 -0.580848 0.001078 0.031596 0.680220 0.130366 0.763494 -0.108880 -0.467932 -0.623072 -0.680957 0.620117 -0.290108 0.088345 0.018838 0.715114 0.256499 -0.005774 -1.022142 -0.390314 1.231834 -0.012304 0.786893 -0.640800 -0.561696 0.585960 0.223299 0.257585 0.227523 0.268666 -0.479142 0.491055 0.798333 0.750895 -0.364093 -0.125356 -0.358675 -0.618757 -0.031545 -0.807322 0.762947 0.065070 -0.115032 -0.181972 -0.153488 -0.329253 0.174009 0.184930 0.040864 -0.387433 0.956968 -0.633934 0.696756 -0.844706 -0.212420 0.267637 -0.242715 0.284509 0.384816 -0.048513 -0.023359 -0.197754 -0.741787 0.281269 0.083235 -0.091216 0.535047 0.455657 -0.247096 -0.204525 -0.399920 -0.338323 -0.284491 0.018238 -0.122943 -0.758369 -0.099281 -0.505053 0.498799 -0.590639 -0.250413 1.057462 -0.167954 0.930655 -0.075402 -0.401007 0.252314 0.150330 0.023475 -0.466226 0.408754 -0.465363 -0.081539 0.704829 0.938021 -0.845951 -0.772157 1.098263 -0.741556 0.430722 0.172449 -0.038787 0.421358 0.644850 -0.074601 -0.238662 -0.301424 -0.231621 -0.424641 0.703165 0.552935 -0.430774 -0.500666 0.341228 0.195056 -0.784633 0.229393 0.222167 0.055335 -0.679407 -0.484892 -0.130278 -0.007062 -0.948413 0.138523 -0.367310 -0.298535 -0.201115 0.405712 -0.917758 0.056831 -0.507342 -0.111420 0.212660 -0.762310 -0.451451 -0.475304 0.035096 -0.304837 0.012299 -0.300949 0.115365 -0.095115 -0.119342 0.166894 -0.373625 -0.582590 -0.144763 -0.045347 -0.691281 0.285400 0.759431 0.413885 -1.065801 -0.598090 0.391593 0.965694 -1.060912 -0.639133 -0.227253 0.190897 -0.862697 -0.009379 -0.380270 -0.297154 -0.645253 0.225043 0.401592 0.785078 -0.565809 -0.676834 -0.366154 0.713304 0.598897 0.164510 
教育 0.226062 -1.835029 0.200042 -0.764636 0.784179 -0.502081 -0.071231 0.349795 1.202288 -1.467612 -0.028492 -0.841484 -0.341442 1.357059 -0.170326 0.311758 -0.686910 1.617900 -0.055077 1.494303 1.498059 -0.601007 0.218118 -0.935177 1.189787 0.234051 -1.116055 -1.342631 -0.892412 0.398829 0.109279 -0.439057 0.165494 -0.248938 0.595508 -0.330987 -1.602368 0.600915 -0.329581 -0.611550 -0.167729 -0.618316 -0.153941 0.293522 0.969529 0.559487 -0.543563 -0.426385 -0.038619 -0.540882 0.585594 -0.001806 0.985979 0.504614 -0.193847 -0.762248 1.495811 -1.451600 -0.679588 0.058568 -0.396979 -0.581392 -0.001560 -1.549480 0.334161 -1.236505 -0.362600 1.211474 0.287381 0.692732 1.059977 -0.311478 -0.810558 1.034319 0.906370 -1.122190 0.098399 1.493619 -1.033481 -0.984420 1.044751 0.611129 -1.064171 0.291530 0.776739 0.281188 -0.761229 -0.490362 0.449315 -0.183711 0.113431 -0.280015 -0.320112 0.200311 -0.032802 0.376675 -0.094184 0.632086 -0.754474 -0.100598 -0.499172 0.070052 1.017228 0.159923 -0.678355 0.739709 1.831845 0.403003 0.522837 1.746766 0.220821 -0.233492 -0.946540 0.013439 0.316181 -0.809559 1.913907 0.706000 0.696617 1.007673 1.184062 -0.238984 1.911620 0.182431 -1.309579 0.894430 0.412514 0.346087 1.224577 0.359409 -1.003215 0.308911 -0.548606 -0.266025 -0.279068 -0.828158 -0.538936 -0.303870 0.312858 1.280103 0.315215 -0.930475 0.244958 -0.948583 0.515041 1.961818 1.716820 0.388678 -0.074039 -0.565051 -0.857036 1.103610 -0.196657 -1.071256 -0.686746 -0.165292 0.448003 -0.218903 -0.511637 0.347321 -0.558950 -0.255316 -1.716339 -1.596491 -1.885668 0.416044 -0.401412 0.595583 0.443558 -0.142888 -0.473956 -0.006521 0.104598 1.118520 -1.230960 -0.319328 0.145429 -0.263406 -0.750890 -1.042257 -0.289920 1.121463 0.976271 -0.856445 -0.278245 -0.339145 0.175304 0.243963 0.030957 0.100391 -0.576303 -0.480215 0.009482 1.197161 -0.108630 0.775202 -1.833271 -0.159505 0.269070 -0.386806 
衣物 0.575703 0.119655 1.522407 -0.189620 0.151553 -0.484546 0.028715 -0.031287 -1.277692 0.182638 -1.010210 -0.545894 -0.282737 -0.424174 0.734889 -0.136017 0.152928 0.848836 0.314090 -0.271297 -0.006217 0.614328 -0.029463 1.363506 0.247416 0.576485 0.492487 0.264328 0.648433 -0.002934 -0.016377 0.025440 -0.076099 0.527163 -0.766763 1.828678 0.272339 -0.496732 -0.448455 0.157626 0.919737 0.983645 -0.235096 -0.608811 0.067751 -0.203392 -0.076718 -0.003318 -0.793927 0.608848 -0.710426 -0.349387 -0.362718 -0.572349 0.352150 0.544805 0.971092 -0.689458 -0.830419 -0.097830 -0.124037 -0.756351 -0.255601 0.323667 0.082935 -0.333165 -0.618878 0.023180 -0.620656 -0.431861 -1.108655 0.173952 0.045996 0.673942 -0.840144 0.283877 0.295464 0.538666 0.006116 -0.063094 0.737229 -1.152444 -1.373210 0.038478 0.125635 0.697131 -0.029802 0.656146 0.579042 0.728389 -0.133177 0.820850 0.697100 -0.341428 -0.647051 -0.666964 0.014868 1.031709 -0.401906 -0.994227 -0.981311 0.860786 0.529327 0.998273 0.144517 -0.246867 1.406559 0.763917 1.118763 1.001420 0.651035 0.170369 0.256694 0.345091 1.296350 -0.299721 -0.371049 -0.606760 1.062764 1.559263 1.490247 0.949355 -0.021473 -0.247900 0.111569 0.780101 0.586961 -0.106968 -0.553882 -0.884498 -1.310982 0.474139 -0.909728 0.440169 -0.030353 -0.055515 -0.287480 0.042482 0.691109 -1.510675 -0.827808 0.350749 -0.090415 1.136922 0.383091 0.372079 0.670461 -1.311996 1.097822 0.118454 0.756957 -0.736435 0.642650 0.621514 0.370420 -0.180216 -0.888533 -0.396643 0.206113 0.075133 0.043130 0.077686 -0.613728 -0.618128 -0.664170 0.964830 -0.490618 -1.533863 -0.698895 -0.698421 -0.373731 0.657760 -0.077948 -1.229572 0.211069 -0.817387 0.202690 -0.654435 -1.514301 -1.412971 0.036148 0.935105 -1.178815 -0.390242 -0.105568 1.350828 0.007432 -0.143630 -0.748060 1.357626 0.362618 1.525720 -1.412410 -0.693114 -0.337723 -0.616351 0.105761 0.112358 0.651828 -1.526319 
货币 -0.115909 -0.975232 1.098185 0.156589 -0.102559 -0.764187 -0.611338 0.776794 0.117575 -0.436336 -1.635398 1.308264 -0.059037 0.597579 -0.682588 0.651122 0.022654 0.540520 -0.786655 -0.836678 0.343109 0.233011 0.398095 0.868753 0.685006 -0.083945 -0.337135 -0.649733 -0.811895 0.339375 0.155846 0.398122 -0.387773 -0.068394 -0.246888 0.998543 -1.538994 0.403777 0.523754 -0.555305 -0.588477 -0.169974 -0.375331 -0.155899 -0.329733 1.166330 -0.599925 0.669843 -0.914875 -0.503188 -0.272917 0.874366 0.068916 -0.463410 -0.585091 0.169073 0.758716 -0.186694 -0.488305 1.238230 0.573456 -0.461011 0.645880 -0.216537 0.492694 1.196736 1.345948 -0.268931 0.374356 0.594064 0.130118 -0.013828 -0.373551 -0.170663 0.980800 -0.248490 -0.756486 0.263273 -0.397775 -0.135963 0.384476 0.260279 -0.464588 -0.083967 0.708352 -0.596671 0.617039 -0.412481 0.108477 -0.593622 1.088445 0.170653 -0.233659 -0.375952 -0.283254 0.636585 0.880811 -0.578561 0.298784 -0.314498 0.424440 -0.349099 0.196979 0.858921 -0.180115 1.804162 0.361967 -1.024610 -0.524243 0.902626 -0.091631 0.297697 -0.893901 -0.537365 0.633388 0.294307 0.854458 0.707148 0.423791 -0.339698 1.002403 0.540433 -0.392985 1.260790 -0.997150 0.536201 0.381125 -0.122808 0.561721 0.280605 -0.638559 -0.456596 0.161098 -0.035043 -1.282720 -0.338937 -0.512451 -0.643381 -1.094989 0.518514 -1.004661 0.912857 1.518606 -0.608879 -0.400476 0.414967 0.738336 1.082327 -0.303186 0.564887 -0.353698 1.264143 0.854327 -2.009504 0.080874 -0.869015 -0.198818 0.354318 -1.280446 -0.857343 0.388972 -0.808965 0.719539 -0.524614 -0.466178 -0.113104 -0.626477 -0.279677 0.702219 0.962944 -1.186441 -2.126433 0.020401 -0.319416 -0.829695 0.366475 0.774822 0.433758 0.866872 -1.669211 -0.303758 1.314291 0.278351 -0.979758 -0.107959 -0.008551 -0.574185 0.928081 -0.473583 0.367837 -0.314669 -0.079471 -1.028163 -0.371882 0.289304 -0.533355 -0.491312 -0.518204 -0.585926 -0.662515 
水域 0.081826 -1.063304 0.396161 -0.487372 -0.821581 -0.611934 0.513496 0.372334 -0.227229 -0.698338 -0.227319 0.129225 -1.605663 0.014548 -1.240499 0.035854 0.839327 0.590042 -0.330745 0.251057 -0.331291 0.572749 0.601245 -0.466883 0.036132 0.132516 1.267841 1.580117 0.498834 0.120472 0.188426 -0.295158 -0.115393 -0.716953 1.029396 0.246370 -1.319580 0.029718 1.220336 1.022688 0.134045 0.703514 -0.907256 -1.378138 0.027979 0.261125 -1.290347 0.211647 1.450307 0.565993 -0.322043 -0.349897 0.271206 0.146122 -0.003731 0.936839 0.069334 0.354570 0.408542 -0.238453 0.510205 -0.383498 0.158733 -0.211049 -0.807169 -0.092469 -0.916260 -0.468529 -0.128967 1.144842 -0.233490 0.941088 -1.017828 -1.666059 -0.321015 -1.036197 -0.837427 -0.456699 0.110084 -0.312956 0.076999 0.605868 0.141024 0.641455 0.212424 0.155709 0.005507 0.326228 -0.098115 -0.613800 1.623133 0.476850 1.463350 -0.980404 -0.193941 0.358413 0.003407 0.709141 0.238124 -0.461543 0.231028 -0.309509 0.074961 -1.591496 0.382666 1.053028 0.863441 -0.057426 -0.256482 -0.183225 0.836290 1.486209 0.788897 0.313099 0.110722 1.891442 0.584701 -1.709569 0.369540 -0.815248 0.568878 0.822125 0.478164 0.365497 -0.694313 0.840199 1.059595 -0.653491 0.350559 0.158584 1.538463 -0.280342 0.908735 0.247840 0.171097 -0.296919 -0.214870 -0.434249 0.125321 -0.940633 0.248772 0.198652 0.012433 -0.325887 -0.255634 0.508891 0.365438 -0.530839 0.721536 -0.152053 -0.471283 0.169670 -0.979726 -1.196126 -0.467613 -0.250953 0.093042 0.814996 -0.400954 1.010082 -0.160921 0.572959 0.434432 -0.271899 -0.512658 -0.759747 -0.639704 -0.124440 0.520027 -0.095561 -0.758950 -0.395363 -0.524326 0.356638 0.896032 0.482053 0.134644 -0.313401 0.170696 -0.131296 0.333075 -0.859280 0.972606 0.291955 0.259358 -0.176143 -0.237990 0.534723 -0.466033 -1.105287 -0.385308 0.942398 0.206706 0.658520 -0.901697 -0.292171 0.723528 -1.492427 0.141183 -0.608295 
警 -0.173273 -0.386217 1.361436 0.163518 -0.425830 -0.789567 -0.248899 -0.007636 0.446427 -0.410268 0.306861 -0.151005 -1.202045 0.703536 -0.020085 0.297352 -0.292387 0.788068 -1.666865 -0.752884 -0.715631 0.225042 1.036546 -0.320794 0.367770 0.919139 0.415781 0.763080 -0.507551 -0.071125 -0.300158 -0.279094 -0.081315 0.013119 1.144474 -0.297447 -0.584356 0.336178 0.714458 0.178514 -0.453724 0.473830 -0.007690 -0.719624 -0.582446 0.245591 -1.580356 0.069297 -0.664663 0.519944 0.795597 -0.399636 1.665792 0.687895 -1.070169 -0.306948 0.255790 0.420744 -0.611240 0.458090 0.207260 -1.104866 0.974629 -1.028253 0.667632 0.075510 0.457226 0.455020 0.089624 -0.085346 0.737739 0.802118 0.148454 0.413445 0.989071 0.527426 0.130204 1.083725 -0.869363 0.196770 0.215822 -0.511209 -0.569477 -0.156528 -0.022917 0.302310 -0.447137 -1.227315 0.939894 -1.155811 0.686886 0.256272 0.307969 0.047102 0.526612 0.754994 -0.530895 0.593091 0.548692 0.124668 -0.532911 0.767127 0.714926 0.017967 0.624711 0.289847 1.353359 -0.682950 0.662768 1.169473 -0.201296 -0.304352 0.409451 1.195716 -0.236039 0.655913 0.828826 -0.877021 -0.633245 1.177176 0.528958 -0.409527 -0.489846 -0.055755 -0.242737 0.697782 -0.071108 -1.123804 1.117373 -0.996724 -0.434780 0.560756 1.138368 0.673236 0.960863 -0.738031 0.298616 -0.280823 0.513838 0.526658 0.775094 -0.273402 -0.184872 -0.413569 1.164864 1.084828 0.652855 0.150787 0.053122 0.251809 -0.516582 -0.059477 -0.464718 -0.595039 -0.758276 -0.745766 -0.381570 -0.575180 0.286722 0.380649 -0.573794 -0.156098 -0.490805 -0.868335 -1.093900 0.911832 0.324142 0.246454 -0.540048 0.195637 -0.504393 0.669111 -0.605996 0.384866 0.063425 -0.324382 -0.468704 -0.738241 -0.092938 -0.941100 -0.421180 0.071218 0.264670 -0.406438 -0.156501 0.229294 0.388154 1.007060 -0.691822 -0.043936 -1.020286 0.416529 0.405442 0.893963 -1.634403 0.430281 0.276998 -0.285403 0.774749 -0.404081 
位置 -0.034788 0.134620 0.284896 0.553955 -0.398074 -0.218664 0.263531 0.013624 0.026445 1.016948 -0.094396 1.108644 0.117810 -0.142949 0.374619 0.285390 -0.755917 0.024076 0.322131 -0.370776 0.018759 0.517263 0.280848 0.607873 -0.739140 0.815009 0.380877 0.228778 1.035315 1.255360 0.149717 -0.240113 -0.020248 -0.168008 0.258811 -0.175798 0.021248 -0.411862 0.167140 0.087256 -0.045619 1.306879 -1.363930 -0.436656 0.376871 -1.100055 -0.467361 0.613556 -0.431478 0.504279 0.380243 0.642721 0.392507 0.592687 -0.091635 0.363448 -0.262743 0.956450 0.477848 0.878333 0.167788 0.109983 -0.086742 0.161093 -0.236912 -0.538318 0.378609 -0.347771 0.036616 0.400474 0.348495 -0.644873 0.719915 -0.129409 -0.567153 -0.297593 -0.785166 0.238963 0.631066 0.265581 0.425103 -0.478873 -0.807085 0.523567 0.090668 0.069748 0.648785 -0.476946 0.488834 -0.700679 -0.411109 0.394384 0.325622 -0.641940 -0.297240 1.165931 0.352871 0.622053 -0.880689 0.437508 -0.608604 1.214542 -0.522447 -0.769969 -0.173105 0.749967 -0.103296 -0.240639 -0.969983 -0.212361 0.845098 -0.568920 0.738922 -0.145209 -0.583875 -0.864619 0.099988 0.945547 0.536633 0.383417 0.297898 0.226025 -0.830682 0.670875 -1.008148 0.672753 -0.084048 -0.192992 -0.563182 -0.446783 0.882931 0.125373 -0.842777 1.455463 -0.368376 0.032615 0.779681 -0.674909 0.174458 -0.397964 0.301061 1.298683 -0.658767 0.299194 0.269993 -0.389831 -0.070470 -0.217567 0.082436 -0.291459 0.178170 0.602741 0.526167 -0.247674 -0.034855 -0.176738 0.363829 -0.079500 -0.841308 0.316032 -0.584948 -0.412406 0.289349 -0.108775 0.366968 -0.333344 -0.178859 -1.019932 0.500838 -0.225747 -0.236236 -0.367831 -0.229811 -0.082184 0.953052 0.240561 -0.472494 -0.533374 0.310370 -0.861076 -0.386350 -0.108711 0.548274 0.907480 0.306968 0.871658 -0.257090 -0.437571 -0.093094 0.621497 -0.261345 0.121364 -0.095388 -0.446497 -0.278867 -0.396576 -0.396484 -0.128114 -0.114159 0.093240 
官 1.553041 -0.437426 0.240871 1.056790 0.584697 0.000344 -0.406797 0.015876 -0.041272 -0.502245 0.538288 -0.463574 -0.216103 0.012538 -0.031079 -0.370003 -0.268796 0.789342 -0.742098 -0.132505 -0.046009 -0.305826 -0.070880 0.073414 0.295257 0.013022 0.183975 -0.926743 -0.014208 -0.262731 0.453964 0.146099 -0.354990 -1.194270 0.600280 0.934681 0.006452 0.548052 0.842712 -0.666138 0.186532 0.582188 -0.828782 -0.963323 0.779265 0.338135 -1.185807 0.717274 -0.224877 -0.545137 -0.163943 0.252140 1.662939 0.177207 -0.819995 1.028755 1.831391 0.094972 0.012681 -0.208495 -1.012411 -1.164216 1.041469 -0.717320 -0.091899 1.349396 1.048906 1.239421 -0.208685 1.246203 1.650903 0.376916 -0.573503 0.057817 0.087698 0.910590 0.720638 0.708474 -0.743372 -0.960412 -0.740252 -0.096244 -0.368516 -0.816041 1.233333 0.935008 -0.139831 -0.431626 0.993403 -0.194451 0.739937 -0.101646 1.283720 -0.820769 -0.090585 0.366649 0.098736 0.891543 -0.031214 1.047484 -0.277266 0.114441 0.324801 -0.841825 0.177742 -1.041984 0.698487 0.071534 -0.446922 0.344022 0.672035 -0.642828 -0.779303 0.487261 0.110180 0.534097 1.011407 -0.684251 -0.516195 0.565353 1.022490 -0.533489 0.784860 0.061866 0.480484 1.045890 -0.600125 -0.412257 0.544396 -0.218188 -1.040312 0.678526 0.534599 -0.804959 -0.378188 -1.095214 0.050881 0.060843 -0.379699 -0.310815 -0.463479 -1.828246 0.257378 -0.237792 1.131165 0.227220 0.627721 0.622579 0.618356 -0.646215 0.154117 -0.233305 -0.278112 0.697744 0.803082 -1.315083 0.050481 0.075816 -0.665257 0.859651 0.128431 -0.549574 -0.294883 -0.497364 0.092463 0.227578 0.678432 0.005276 0.665501 -0.758576 -0.891922 0.439050 0.107467 -0.870143 -0.038787 0.224444 -0.644199 -0.324013 -0.062890 -0.190458 -0.691030 1.219493 0.070792 -1.115082 -0.614711 0.624443 0.124512 0.817677 0.558325 -1.290676 0.369210 0.599706 -0.581925 0.849733 -0.807267 1.361144 0.202558 -0.199604 -0.526637 -0.475287 
实体 0.462290 -0.957941 0.110006 1.308037 -0.023186 0.856576 -0.297085 -0.542425 -1.141569 1.166827 -0.235011 -0.121828 0.999211 -0.373659 -0.666866 -0.284729 0.009823 1.322256 -0.284455 0.102796 -1.043637 1.300271 -1.012482 0.247901 -0.708925 -0.514315 -0.799520 0.642181 0.557806 0.305490 -0.324292 0.534764 1.269721 0.534878 -0.548157 0.498867 -0.444799 0.659995 -0.986632 0.837834 -0.189810 0.492418 0.520559 -0.785434 0.862387 -0.082455 0.917250 -1.077200 -0.681413 -0.035076 -0.081982 0.714578 -0.656663 -0.835090 0.608902 -1.173182 0.766579 -0.557523 -0.066717 -1.889707 -1.118993 0.358358 0.317884 0.801349 -0.376396 0.600737 -0.945227 -0.555241 -0.225852 0.089375 0.987950 -0.091840 -0.528270 -0.521090 0.702248 -0.499003 -0.140174 0.080548 1.006688 0.897976 0.873012 -0.644370 0.300282 -0.206562 -0.034887 0.678031 -1.688745 -0.612097 0.857814 -1.044004 -0.170242 0.101315 1.022810 0.003935 -1.039242 0.180825 -0.310212 0.024860 1.222170 -0.768238 1.389734 -0.114467 -1.380691 -0.192401 -0.813581 0.757707 -0.352416 0.186917 0.699638 -0.120275 -0.168143 -0.066489 -0.586173 0.572235 -0.126260 0.234437 0.696595 -0.526471 1.028265 -0.643962 0.469674 -1.387095 0.307830 0.405882 1.193924 0.151869 0.414019 -0.385508 1.121010 -0.527514 -0.275838 0.999801 0.990927 0.782157 0.117216 -0.308136 -1.459599 -1.088210 -0.192964 1.299929 -0.143698 -0.018158 -1.567006 -0.148558 -0.490829 0.266766 -0.345553 0.521722 -0.576516 -0.739463 -0.094908 0.095633 0.397788 -0.461830 -0.148967 0.180398 0.587062 -0.007057 -0.941271 -0.278377 -0.067179 0.078469 0.028696 0.673821 1.011285 -0.652666 1.275523 -0.011329 -0.032584 0.430331 -0.482115 1.315394 0.322698 -0.596225 -1.373749 -0.006693 -0.202129 0.324864 0.044992 0.317896 -0.040734 0.496711 0.127165 -1.363985 -0.299927 -0.145536 0.330821 -0.418808 0.625740 -0.295997 -1.164606 0.832127 -0.216474 -0.416125 0.129094 0.687666 0.270354 -0.396632 0.073459 -0.184788 
有罪 0.249044 -0.894976 0.853826 0.857464 0.820137 -1.051914 -0.848531 -0.405435 -0.942972 -1.015046 0.226931 0.627026 -1.428633 -0.552611 1.052326 -0.434274 -1.435130 -0.004924 0.105112 -1.774161 -0.177278 0.290389 1.903396 -0.453951 0.504283 1.645249 -0.341242 0.634538 0.406040 0.051274 -0.469616 -0.642225 -0.197171 -0.357689 -0.194938 -0.474084 -0.158236 -0.125768 0.966191 -0.841761 -0.388014 1.013435 -0.206711 -0.711492 0.113351 -0.084788 -0.554380 0.519504 0.124594 -0.730171 -0.088370 0.666174 0.521326 1.256845 -0.569524 0.559472 -0.096587 0.401856 0.908834 0.824360 0.234978 0.229520 0.371271 0.080018 0.521236 -0.344977 0.659399 0.838290 1.098953 -0.388242 1.249869 0.008961 -0.267816 0.510248 -0.315374 1.367084 -0.828116 0.125526 0.358502 -0.533435 0.403602 -1.615086 -1.553267 -0.338230 -0.325364 -0.370940 0.251090 -0.698393 0.748720 -0.154524 -0.128127 0.373040 -0.335833 -0.008559 0.070498 1.609934 -1.053845 -0.015971 -0.171036 -0.455435 -0.117620 1.002978 0.708509 0.508359 0.140249 0.012360 1.385090 0.067469 -0.198418 0.243231 -0.665634 -0.888146 -0.329278 0.187363 0.317585 0.397773 -0.650491 0.088744 0.100607 2.204950 0.417361 -1.059935 -0.358153 -0.614973 -0.938224 1.098224 -0.281049 -1.370776 0.257437 0.830034 -0.436521 -0.047882 -0.066836 0.278460 -0.328721 -0.261777 1.199701 -0.653827 -0.195961 0.074169 0.366007 0.630791 0.757005 -0.038038 0.185298 0.330595 -0.661204 -0.315648 -0.197393 1.137034 -1.007246 0.313010 0.224721 -0.406059 -0.460158 -0.682028 -0.741386 -1.336841 -1.205251 0.166480 -1.092779 0.649060 -0.790246 -1.100093 -0.511112 1.177315 -0.166065 0.899452 -0.286252 -0.039590 0.490083 0.848337 -0.572432 0.035820 -0.086644 0.097076 -0.156450 -0.424014 0.598483 -0.056225 0.625609 -0.255589 0.508422 -0.090564 -0.558745 -0.424660 0.062476 0.615985 -0.389016 0.238461 -0.525061 0.214192 0.020140 -0.723054 -0.451770 0.327744 -0.706879 0.234063 -0.007617 -0.109969 
管理 0.207502 -1.093218 1.284738 -0.347523 -0.326861 0.406034 -0.507075 0.848512 0.395089 -1.061004 0.667890 -0.653235 -0.523634 -0.247391 0.870906 0.257638 -0.321249 1.168045 -0.098311 -1.387518 0.448932 1.036745 0.648924 0.158080 0.982747 1.086318 -0.537971 0.528908 0.530072 -0.198886 -0.206890 -0.158567 -0.172236 -0.099762 -0.396071 -1.381756 -0.476364 -0.259707 1.534875 0.028695 -0.927657 1.207857 -0.978785 -0.445264 0.260504 -1.240933 -0.506133 0.537118 -0.157820 -1.699069 -0.053044 0.288360 -0.006223 -0.431302 -0.005345 0.163418 0.923809 0.105794 -0.168243 0.146616 -0.267689 0.433546 -0.233873 0.621794 -0.061330 1.386768 0.638363 1.094895 0.349596 0.342501 1.069915 -0.262434 0.961732 0.818185 -0.527411 -0.899300 0.629362 0.010662 -0.096972 -1.017485 -1.618618 -0.208634 -1.313605 0.994892 0.133613 1.111104 0.233419 -0.616671 -0.044921 -0.763789 1.018021 0.369631 0.034943 -0.386808 -0.402752 2.200840 0.116220 1.122938 -0.428452 -0.561183 -0.403956 0.469059 0.256926 0.783839 1.306754 -1.467873 0.807685 0.110858 -0.988987 0.440697 0.592879 0.026024 1.152868 0.691597 1.026347 1.135454 0.382160 -0.770824 0.182658 0.673670 0.461797 -0.076477 -0.784972 1.622892 0.062415 2.096996 0.975364 -0.694429 0.563182 -0.218258 0.103893 -0.450398 1.141956 0.577538 -0.606456 -1.557012 0.550820 0.162043 0.009837 -0.834911 -1.252049 -0.321893 1.095176 -0.866975 0.861537 -0.397060 -0.195196 0.099001 -0.399288 -0.451668 0.316637 0.216457 -0.580490 0.120479 0.201694 -1.985404 -0.622349 -0.984288 -0.584950 1.805491 0.511811 0.112216 0.898890 0.102775 0.537439 0.218380 -0.568814 -0.474220 -0.574566 0.499594 0.163250 0.046354 0.143289 -0.936611 0.956178 1.007704 -0.509417 0.429609 0.315543 -1.560920 0.156387 -0.503122 -1.099339 0.279478 0.637195 -0.426921 0.644270 -0.334951 -0.780189 0.305883 0.210516 -0.261772 -1.320437 0.348207 -0.612977 0.139906 -0.837408 -0.001966 0.089540 -0.655057 
学习 -0.183107 -1.410820 0.134361 -0.854062 0.161822 -0.694148 -0.540965 1.201162 1.029477 -0.905526 0.405385 -0.203902 -0.166880 0.411941 -0.080831 0.225983 -0.881898 1.177347 0.356940 0.095359 0.448288 -0.516130 0.937550 -0.007472 1.058025 1.099959 -0.988034 0.146922 0.157867 -0.668804 0.225533 -0.425819 -0.137804 0.299092 -0.751775 -1.176343 -1.112089 0.949146 0.051179 -0.410354 0.317862 -0.192630 -0.624725 0.515274 1.145625 -0.747618 0.152665 -0.110123 -0.664186 -0.791402 0.027587 -0.053860 0.578208 0.797422 -0.262390 -0.157440 0.217565 -0.389938 0.356128 0.773115 0.033634 -0.608828 -0.062290 -0.076743 -0.333149 0.079265 -0.240944 0.201525 -0.219208 -0.347429 1.684204 -0.081334 -0.038425 1.275328 -0.685968 -0.559422 -0.892600 0.351524 -0.792936 -0.896213 0.105250 0.497460 -1.444325 0.756606 -0.193888 0.067215 0.643120 -0.436428 0.329955 0.366696 1.062592 -0.305477 0.307258 0.263474 -0.484099 0.523638 -0.252373 1.013505 -0.229244 -0.321888 -0.467083 0.674273 -0.224229 0.530883 -0.005431 0.108563 0.669290 0.355537 0.188327 1.069094 0.722085 -0.537157 0.014531 -0.644385 1.098746 -0.828344 0.982908 0.658696 0.338325 0.471616 0.446511 -0.510102 0.045966 0.485583 -0.601317 0.533793 0.452099 -1.329753 -0.090042 1.104535 -0.671183 0.094287 -0.475256 -0.664455 -0.015230 -0.972422 -0.959126 0.490319 -0.044424 0.304237 0.358180 -0.290639 -0.054549 -0.692200 -0.594523 0.650109 0.336605 -0.581236 0.278887 0.687905 -0.733313 1.235818 0.189962 -0.398632 0.721278 -0.027181 0.098266 -0.674279 0.245262 0.376771 0.550037 -0.230723 -0.481313 -0.277239 -1.474563 -0.151621 -1.409242 0.463148 -0.212344 0.799539 0.779960 -0.281648 0.649191 0.273603 -1.157104 0.776867 1.138389 0.465214 -1.031457 -0.915940 0.735415 0.263273 0.232134 0.504115 -0.658719 -1.209194 0.345487 -0.364572 0.066039 0.150823 -0.150720 -0.591037 -0.769261 0.519394 0.372763 0.078407 -1.163126 0.721325 0.780103 0.132041 
金融 0.383373 -1.186715 0.935669 -0.213803 0.054405 0.165366 -0.491346 0.025160 0.055462 -1.168235 -1.237257 0.766799 -0.783995 0.015393 -1.033168 0.857782 -0.531940 0.539534 -1.764598 -0.170540 0.162037 0.509490 0.541596 1.825409 1.114457 -0.506834 -0.818052 0.255965 -1.069760 -0.059736 -0.196874 -0.395777 -0.194534 0.002253 -0.165734 0.024670 -1.030213 0.133376 0.585023 -0.512537 0.303008 0.843296 -0.221770 0.468862 -0.429869 0.476360 -0.934958 0.755610 0.157837 0.068814 0.204167 0.886538 0.899048 -0.083727 -0.868523 -0.516996 1.463692 -0.915119 -0.542850 -0.168708 -0.044780 -0.753066 -0.442840 -0.857768 0.995005 0.753288 1.473271 0.703452 -0.529149 0.689916 -0.121585 0.827529 0.432186 0.325424 1.254460 -0.511052 -0.961041 0.088637 -0.892071 -0.440663 -0.086853 0.042188 -0.804954 -0.357631 0.974583 -0.002948 0.375864 -0.405729 0.391957 0.341910 0.961971 0.320412 -1.187071 -0.729713 0.239135 1.190933 0.889616 -0.580595 -0.230196 -0.416921 0.192858 -0.159700 0.499909 0.417056 0.190578 1.229227 1.753504 -0.233314 0.490742 1.236663 0.070557 0.653799 -0.764872 0.158795 0.307574 0.765665 0.388655 -0.129970 0.832577 -0.313531 0.750447 0.390576 -0.448569 0.875316 -0.819647 0.710549 1.224515 -0.630543 0.340006 0.185361 -1.151926 -0.054391 1.091034 -0.322628 -0.925427 -0.782559 -0.690430 -0.606106 -0.604753 1.335970 -0.351435 0.702356 1.678217 -0.319182 -0.516129 1.355554 0.753397 1.321482 -0.005070 1.332802 -1.131431 0.857612 0.264142 -1.938641 0.556186 -1.515862 -0.024502 -0.170320 -0.853334 -0.738938 -0.087210 -0.681250 0.516060 0.122199 -0.333962 0.718813 -0.631955 0.965397 0.656006 0.720546 -0.897698 -0.578512 0.400017 0.583797 -1.423908 0.870132 0.670613 -0.853347 0.650493 -2.062819 -0.442481 -0.046573 0.208299 -1.322351 -0.242926 0.260933 -0.606805 0.886310 -0.425964 -0.861219 -0.585003 0.396985 -0.548963 -0.947368 0.174781 0.063943 0.024835 -0.636284 -0.689177 0.292891 
人工物 0.291147 0.019960 0.616031 -0.318724 -0.070820 -0.345421 -0.517942 -0.316276 -0.957797 -0.334068 -1.392619 0.411660 -0.452222 -0.333569 -0.315033 0.453176 -0.162435 0.524622 0.430188 -0.356660 -0.466740 0.631870 -0.064923 0.441139 0.782167 -0.506654 -0.366824 0.961430 0.159306 0.188096 0.629591 -0.886253 0.290506 -0.810431 -0.168605 0.405825 0.990265 0.336207 0.878909 0.820620 0.824909 -0.042892 0.233121 -0.369005 0.955942 0.469226 0.792733 -0.315407 0.843236 0.196357 -0.498291 0.297472 -0.906585 -0.407547 0.412544 -0.076688 0.272441 -0.137371 -0.530622 -0.737061 -0.451622 0.562111 0.545369 0.431992 0.080665 0.817915 -0.463618 -0.581982 -0.660734 0.445177 -0.322307 -0.120342 -0.257926 -0.062809 0.099540 0.195261 -0.243686 0.067299 -0.184662 -0.500393 0.390868 -0.138145 0.382324 -0.594143 -0.791219 0.026718 -0.956503 0.363650 -0.104976 -0.139659 0.489667 0.731627 -0.382856 -1.750054 -1.081648 0.227929 0.057987 -0.387885 0.498304 0.076115 0.912749 -0.456292 0.835961 0.058566 0.059462 0.382414 0.255345 -0.334583 1.210628 -0.128863 -0.415340 -0.179923 -0.182708 0.355490 1.430636 0.326610 -0.758660 -0.340143 1.822536 -0.042522 0.750393 -0.488507 0.776326 -0.087970 0.449166 -0.060105 -0.725044 -0.739132 -0.559891 0.428056 -0.763662 0.261786 -0.078346 1.373592 -0.518375 0.839998 -0.622258 -0.147210 -0.699118 1.237675 -0.671759 -0.333456 -0.423238 -0.768301 -0.619125 0.261367 0.003338 -0.047135 0.077366 0.238011 -0.254727 0.201038 0.199663 -0.809664 -0.393237 0.269503 -0.719695 -0.443235 -0.817581 0.438697 0.362055 0.283336 0.525080 -0.932528 1.022541 0.520621 1.379920 0.224190 -0.138428 0.540331 -0.080287 -0.356403 -0.149205 0.158687 0.152877 0.610797 -0.052989 -1.394554 -0.085636 0.087827 0.442937 -0.067765 -0.891030 -1.284719 -1.275467 0.415581 -0.796884 0.407194 -1.047279 0.185700 1.212578 1.116990 -1.111776 -0.423837 1.001023 -0.453210 -0.628252 -0.325253 0.314259 -0.807125 
团体 0.431937 -0.130532 0.094177 0.016469 -0.278547 -0.082817 0.783771 0.053672 0.032822 -0.332630 0.635543 -0.567708 -1.019307 0.283200 0.287248 -0.642545 -1.149734 -0.207306 0.036957 -0.238776 -0.274103 -0.029631 -0.752908 0.215947 0.172271 0.603543 -0.509106 0.739694 0.698762 -0.017113 -0.588272 -0.814986 0.423392 -0.102419 -0.724839 0.484825 -0.606809 -0.605402 0.997421 0.223880 0.249613 0.083316 -1.069272 -0.006680 0.451928 0.280610 -0.160669 0.673480 -0.554484 -0.577920 0.865167 0.188525 -0.002235 -0.131329 0.457679 0.860433 0.540898 -0.303146 -0.419971 0.064356 -0.433588 0.015140 -0.319614 -1.230361 -0.097912 0.478509 -0.015021 0.842203 0.501606 0.773553 0.348294 0.456710 -0.599452 -0.195294 -0.799123 -0.287456 0.551155 -0.485609 -0.544184 -1.291865 -0.421638 0.696000 -0.273704 0.836111 0.158064 0.842217 -0.364774 -0.769331 0.464649 -0.144952 0.069260 0.209770 0.541114 -0.947180 -0.572294 -0.271979 0.367937 0.751009 -0.081867 -0.133621 0.586382 0.357472 0.413732 0.284606 -0.135662 0.283393 0.621546 -0.336696 0.683238 -0.454192 -0.190757 0.241774 -0.254404 0.215535 0.726150 0.346052 0.198615 -0.641602 0.832596 0.353032 0.318986 0.751507 0.086341 1.083085 0.140814 0.688959 1.480137 -0.428014 0.261233 0.952384 0.147619 -0.942596 0.317456 0.570818 -0.308430 -0.850119 0.956201 -0.459291 -0.624823 -0.563886 -1.070337 -0.347434 0.114359 -1.081472 0.709106 -0.168181 0.630297 0.769883 0.349745 0.113824 -0.123873 -0.259171 -1.134241 -0.661975 0.297860 -0.027618 -0.029219 -1.097356 -0.435293 0.889199 0.920852 -0.447726 0.550694 0.330097 0.528624 -0.149999 -0.695416 -0.414245 0.444809 -0.699056 -0.711105 0.505265 0.626399 -0.536608 -0.094926 -0.449264 -0.914382 -0.677885 0.241673 -0.577269 -0.191871 0.322363 -0.468763 -0.419421 0.645657 -0.256459 1.119483 0.352763 0.141468 -1.377432 -0.112831 -0.176385 0.049425 0.700432 -0.107720 0.903026 0.166566 0.237589 -0.304459 -0.234711 
文字 0.621640 -0.311061 0.472482 -0.556724 0.144511 -0.147657 0.240838 0.064733 0.671952 0.235739 0.030226 -0.295811 -0.082528 0.427846 -0.433180 -0.328388 0.422868 0.792458 0.031217 0.628173 -0.305235 -0.177842 -0.289745 0.007387 -0.188747 -0.224471 -0.882464 -0.211871 0.288989 0.123306 0.261174 -0.034940 -0.117160 0.118547 -0.026052 0.323180 -0.414455 0.255930 0.256542 0.680682 -0.289570 -0.059071 0.299767 -0.132638 -0.038419 0.406690 -0.102151 -0.206446 0.154121 0.454616 0.789090 -0.121824 0.723218 -0.113402 -0.283333 -0.030452 0.225136 -0.473810 0.069544 -0.131101 -0.331224 -0.248271 -0.645069 -0.058584 -0.096976 0.205331 0.149367 -0.197066 -0.363972 0.120743 -0.165148 -0.423673 0.336237 -0.508365 -0.063748 -0.267923 -0.575998 -0.308026 -0.569966 0.000910 0.018572 0.369715 0.206014 0.232032 0.224341 -0.082526 -0.069881 0.110684 0.104744 -0.493443 -0.181683 0.249371 0.518967 -0.528050 -0.626183 -0.270908 0.296273 -0.062383 0.438194 -0.494239 0.104356 -0.315385 -0.018210 -0.230077 0.077019 0.299606 0.226223 -0.496153 0.836202 0.546857 0.183176 0.641520 -0.465798 0.025397 -0.243209 0.225233 0.343087 -0.421036 0.643452 -0.236914 0.637786 0.277970 0.546237 0.107511 0.427445 -0.319831 0.652890 0.090567 0.248141 0.214246 -0.264405 -0.033460 0.156530 0.174987 0.116302 -0.161046 -0.241840 -0.766252 -0.216119 0.372315 -0.719065 0.325610 -0.473338 0.294872 -0.013320 0.090524 1.069136 0.795456 -0.992010 -0.333723 -0.424638 -0.030867 -0.564259 0.012757 0.264407 -0.109624 0.388931 0.229181 -0.081300 0.384710 -0.125209 -0.883038 0.032756 -0.295435 -0.196430 0.024949 0.190677 0.187540 0.558186 0.265608 -0.325635 -0.292627 0.119225 -0.114688 -0.212192 -0.050146 0.128642 -0.270496 -0.173362 -0.445735 -0.450957 0.793651 0.072617 -0.853788 -0.065149 0.515086 0.443257 -0.230393 -0.508846 0.143060 0.017068 -0.200452 -0.251915 0.591624 0.311696 0.295676 -0.073612 -0.087087 0.265865 -0.480069 
陆地 0.371648 0.349378 0.602920 0.703322 -0.040353 0.423198 -0.086210 0.576303 0.869370 -0.284151 0.213966 0.604700 -0.624014 -0.147803 -1.082730 -1.003617 -1.048778 0.104616 -0.824061 -0.228675 -1.329051 0.501843 0.665562 0.615108 -0.653023 -0.136695 0.392491 0.656336 1.072482 -0.458759 -0.856073 0.234042 -0.000155 -0.766513 1.378935 1.122214 -0.458534 0.223489 0.397711 0.223711 -0.040528 0.691624 -1.239357 -0.224429 -0.383051 -0.627647 -1.238883 0.056708 0.647993 -0.024019 -0.357877 -0.023191 0.185529 0.067669 -0.144903 -0.074857 -0.395527 0.644065 -0.393264 -0.081950 -0.851410 0.090467 -0.299193 -0.026156 -0.647320 0.948777 -0.101701 0.059930 -0.473664 0.119586 -0.563495 -0.278638 0.544520 -1.938185 -0.300171 -1.026742 -0.291880 -0.991238 -0.894934 0.019112 0.466374 0.969411 0.640969 0.029313 0.296708 0.168413 0.117241 -0.420385 0.841002 -0.131693 0.005847 0.229930 0.553319 -0.194096 -0.521355 0.944786 1.038788 -0.270690 -0.239973 -0.752352 0.489080 -0.547198 0.047554 -1.205836 -0.393885 0.971852 0.385808 -0.561143 0.223904 0.371663 -0.235752 1.197260 0.258243 1.576356 0.677747 1.179722 0.531333 -1.193391 -0.359985 -0.883582 0.285323 0.980316 -1.184718 0.035305 -0.315264 -0.489655 0.809802 -0.661533 0.927411 0.746177 -0.224315 0.127250 -0.526032 0.740067 -1.305528 -1.297781 -0.563122 -1.465422 -0.264390 -1.008613 0.143060 -0.798748 0.330676 0.334304 0.273663 0.433133 0.615491 0.698274 0.488816 0.281002 0.691831 -0.576288 -0.353571 -0.262569 0.575832 -0.416418 -0.309746 0.108161 -0.385391 -0.008172 0.594232 0.109549 1.019720 0.036683 0.143187 -0.403589 0.030267 -0.118201 -0.002233 -0.633560 -0.948307 0.154614 -0.087942 -0.940072 0.041604 -0.285141 0.118615 -0.560763 1.050730 0.344017 0.472492 -0.540789 -0.326279 -0.343696 0.278333 0.308235 0.422164 1.171114 -0.550294 -0.504585 0.653180 -0.566822 0.681397 -0.058103 -0.132274 0.367900 -1.030990 -1.344550 -0.692989 -0.007906 
车 0.821786 -0.932691 1.239824 -0.433741 -1.453414 -1.152580 -0.783411 0.444466 -1.818557 -0.659557 -1.483589 -0.088393 -0.280773 0.317095 0.859450 0.995379 -0.876086 0.663560 -0.471975 -0.357975 0.292220 0.553811 0.950990 0.856483 -0.112839 -0.983130 -0.222626 0.049689 0.276949 1.731752 0.645369 0.225414 -1.025630 -0.739178 0.022795 0.608119 0.783602 0.242395 -0.960768 -0.900754 0.299939 0.523699 -1.104936 -0.458383 -0.690675 -0.287186 0.170138 1.374469 -0.173422 -0.530855 0.165453 -0.051923 -0.109685 0.467833 -0.608952 0.007540 0.641454 -0.763493 -0.772790 0.061324 -0.307108 0.729962 0.322265 0.666734 0.115211 -1.128873 -0.371714 0.002119 -0.808434 0.025053 0.422412 -0.029084 0.291664 -0.506478 -0.137609 -0.182163 0.883423 0.225791 1.171626 -1.037609 0.484881 -0.723761 -0.796459 -0.002404 0.214478 0.468609 -0.073270 0.241769 -1.450786 0.445797 -0.177309 -1.332112 -0.147258 -1.211890 1.187308 1.718868 0.203125 0.082696 -0.377428 0.573276 -0.809984 -0.057627 0.643347 0.055335 -0.150992 -0.309242 0.794790 1.456510 0.772730 0.773984 -0.101027 0.777171 0.097130 0.388751 1.346944 1.115387 -0.115881 -0.483858 1.367592 1.185075 0.287813 1.196580 -0.349718 -0.862986 -0.555900 0.348553 1.198584 -0.597282 0.037436 0.201241 0.224343 0.966906 -0.369016 -0.019001 0.618056 -0.575230 -0.348888 0.059381 0.289402 -0.911311 -0.896396 0.959619 -0.352467 1.371822 0.025120 0.103185 0.491167 -0.451595 0.374488 0.427682 1.186661 -0.044870 0.852163 0.834214 -0.836409 -0.128050 -0.017361 -0.066663 -0.228618 -0.196637 0.295159 0.599097 -0.619931 -1.201924 -0.690140 -0.662879 1.066676 -1.541918 -0.451030 -0.400514 0.226050 -0.756857 -1.751081 0.076224 0.936400 0.617045 0.318037 -0.631645 0.099177 -0.631360 0.525325 0.327236 -0.232319 0.120358 -0.141577 0.540343 -0.195106 0.715490 -1.727606 1.287118 0.373314 1.343305 0.673436 -0.334280 0.895919 0.790287 1.367134 0.502678 0.598187 -1.702506 
过去 -0.115974 -0.457450 -0.266699 0.068960 0.204110 -0.186976 0.150675 -0.711947 -0.321263 -0.426356 -0.092902 0.135617 -1.005383 0.016383 -0.100978 -0.051174 0.187661 1.199846 0.598561 -0.204212 0.526505 -0.255586 0.331039 -0.290495 0.682399 0.091952 0.110085 0.175315 -0.370348 -0.220995 -0.354162 -0.076970 -0.555983 -0.127071 -0.617181 0.326527 0.066502 -0.337237 0.873286 0.667711 -0.284762 0.429500 -0.655465 -0.753546 -1.005552 0.387553 -1.576028 0.382153 0.208866 -0.588879 0.634675 1.169172 0.212799 0.046347 -0.031967 0.490829 0.783320 -0.437783 -0.758223 -0.194665 -0.477570 0.060993 0.021376 -0.368517 -0.511703 0.054716 0.190551 -0.259621 -0.052271 0.704583 0.035031 0.403911 0.279010 0.295623 -0.651756 -0.233355 -0.422588 0.184249 -0.088028 0.310056 -0.049707 -0.255117 -0.234370 0.460343 0.096564 0.120681 0.200496 -0.118620 0.396505 0.397927 0.286015 0.356619 0.082533 -0.232000 -0.360855 0.291618 0.550048 0.288348 -0.155491 -0.377107 0.059059 0.490421 -0.018111 0.427718 0.856655 -0.728419 -0.347587 0.230812 -0.048980 0.469491 0.264815 -0.105583 0.082193 0.584810 0.058169 0.549909 0.208761 -0.537008 0.420056 -0.332770 0.739410 0.683859 0.563145 0.435916 0.330854 0.621804 0.465928 -0.035966 0.653757 0.460001 0.456227 -0.277138 0.785906 -0.539207 -0.174148 -0.233884 1.366939 -0.028196 0.218958 -0.515988 -0.759387 0.588741 0.272281 0.596293 1.055391 0.389505 1.057109 0.159767 -0.286499 0.314377 0.320568 0.021395 -0.340504 -0.539769 0.439659 -0.269941 0.196907 -0.372142 -0.108743 -0.163758 -0.539013 0.268854 -0.246081 0.087526 -0.415069 -0.063112 -0.531250 -0.381743 0.626932 -0.335332 0.297319 0.467455 0.168328 0.128837 -0.016266 -0.313890 -0.079089 0.116649 0.282405 -0.698753 -0.474455 0.783506 0.165055 -0.769508 0.087139 0.329924 -0.012066 0.617000 -0.182485 -0.031547 0.221896 -0.568560 -0.102304 -0.140738 -0.898067 0.226704 0.074351 -0.585025 0.048691 -0.042596 
教 0.275792 -0.544815 0.573124 -0.268570 0.508322 -0.890102 0.355279 0.952318 0.675613 -0.008496 0.142102 -1.300276 0.238813 1.070871 -0.844786 0.560608 -0.098628 1.307477 0.126002 -0.074506 1.305827 0.475623 0.345470 -0.152894 0.905204 0.930732 0.177076 -0.702958 0.411269 -0.269502 0.391797 -0.819007 -0.363474 0.528132 0.747433 -0.697407 -0.470202 0.497724 -0.123683 0.602503 -0.221194 1.577554 -0.466214 -0.605552 0.683471 0.613294 0.322420 0.248336 -0.659032 -0.510917 0.328885 0.209802 0.430244 0.296596 -0.027949 0.355957 0.481756 -0.804213 -0.655076 0.395468 -0.164971 -0.601656 -0.209766 -1.638691 0.095344 -0.092028 0.354100 0.177558 -0.157004 0.285508 0.442333 0.638235 -0.096955 1.591830 -0.687305 -0.395274 0.374522 0.491220 -0.766875 -0.134235 -0.209070 0.896341 -1.098997 1.145656 0.647561 1.066121 -0.419619 0.429703 0.189220 0.324605 0.452616 0.310535 -0.128187 -0.172599 -0.014820 0.300401 -0.136665 1.092993 -1.104658 -0.381105 0.857081 0.941586 0.187891 0.250435 0.295013 -0.522860 1.331914 0.696770 -0.283298 1.346425 0.879484 -0.305932 -0.195062 -0.542972 0.279662 -0.936699 0.941233 0.430993 0.684871 0.063130 0.792572 -0.406438 0.383542 -0.438160 -0.695091 1.001710 0.638830 0.828113 -0.257594 0.077263 0.018864 0.094315 -0.349083 -0.767208 0.364351 -0.647141 0.137856 -0.222777 -0.196609 0.076960 -0.694091 -0.563239 -0.255895 0.307697 1.175475 0.149069 1.455287 0.235979 -0.517868 -0.151012 0.045962 0.489905 -0.419869 0.221162 -0.090741 -1.155549 -0.076016 -0.295010 0.368219 0.190725 1.086195 0.686177 -0.761138 -0.698261 -0.219769 -0.202574 -0.463410 -0.378425 0.742520 -0.536232 -0.155660 0.695024 -0.280131 0.838671 -1.588441 -0.945313 0.474467 -0.435358 -0.531817 -0.515783 -0.466372 0.339359 -0.095750 -0.679596 -0.619548 -0.385989 0.795180 -0.415781 1.241665 0.370760 -0.442961 -1.060701 -0.407962 1.624119 -0.749201 0.237736 -0.874043 0.249290 -0.185724 -0.742334 
放置 0.585724 0.159746 0.953199 0.561017 0.273487 -0.466749 0.928946 0.305728 0.230334 -0.403870 -0.352676 0.622052 -0.329398 -0.114948 0.415073 0.318177 -0.153885 0.452272 -0.844818 -0.518616 -0.724278 -0.934074 0.329240 0.281817 0.243163 0.272298 0.653917 -0.060864 0.649878 0.580843 0.067275 -0.105359 -0.923772 -0.876305 0.682244 -0.289235 0.370353 0.557315 0.830994 0.951821 -0.911300 0.639413 0.240219 -0.227784 -0.223947 -0.502482 -0.473237 0.678625 0.785532 0.074248 -0.921644 0.064687 0.523701 0.853632 0.002732 0.302771 -1.161069 -0.097750 0.395738 -0.079481 0.088385 -0.148057 0.504597 0.319212 -0.433724 0.078443 -0.022054 -0.243906 -0.531358 -0.034745 -0.199004 -0.153578 0.541615 -0.415259 0.013634 0.033650 -1.199777 -0.055853 -0.676923 -0.616171 -0.199062 0.945497 0.062334 0.230732 0.693545 -0.358271 0.136497 -0.374027 -0.414481 -0.638682 0.159641 0.931055 1.217748 0.199129 -0.474266 -0.018596 0.618213 -0.216358 0.746911 0.315293 0.131189 -0.055740 0.612633 0.202221 0.365608 -0.123740 0.427730 0.620439 -0.272973 0.908384 0.171794 0.921819 0.308472 -0.344733 0.807158 1.135511 0.591734 -0.738987 0.371632 -0.265916 0.644009 -0.497033 0.088265 -1.341191 -0.397110 -0.098013 -0.447235 -0.621009 -0.808388 0.306606 -0.923072 0.977444 -0.642318 0.307551 0.080268 0.841959 -0.472610 0.145859 0.568826 -0.023499 -0.671916 0.171949 0.846604 0.939565 0.044236 -0.725807 0.347998 0.162442 -0.281538 -0.365605 0.165517 0.268073 0.266448 -0.288092 1.005143 -0.280254 -0.130543 -0.371620 -0.270510 0.917953 0.054600 0.062991 -0.497278 -0.660738 -0.012133 0.200885 -0.048184 0.244656 -0.154215 -0.576785 -0.378786 -0.678255 -0.626227 0.369154 0.254214 -0.362423 1.388856 -0.646428 0.314532 0.577396 0.115108 0.227983 -0.750157 0.693002 -0.103773 -0.259001 0.740195 0.095701 -0.481685 1.211254 1.013088 -0.063701 -0.697910 0.253557 -0.145684 0.276832 -0.871390 0.032211 -0.295765 -1.700940 
机构 1.234551 -0.217594 0.769786 0.944193 -0.830522 -0.475100 0.144906 0.738004 0.047276 -0.429779 0.793676 -0.816990 0.194045 0.107622 0.128926 -1.643388 -0.632989 0.593827 -0.623586 0.148314 -0.261921 -0.206838 -0.760461 0.325167 0.000120 0.984504 -1.147510 0.682558 0.564900 -0.004908 -0.538986 -0.186386 0.568321 -1.496797 0.220891 1.133502 -1.356286 -0.319085 1.747258 0.246506 -0.579460 0.534997 -0.803568 -0.277645 -0.301576 0.728609 -1.437133 1.307548 -1.359313 -0.260023 1.098817 0.687025 0.718536 0.016916 0.385627 0.837562 1.082393 -1.044927 -0.349114 0.785214 -0.900379 -0.312950 0.296917 -1.045461 0.619527 1.304395 0.665493 0.718720 -0.360564 0.616776 1.368522 0.233699 0.115758 -0.826351 -0.517196 -0.516131 0.894786 0.678361 -0.954475 -2.063560 -0.167194 1.424089 -0.459725 0.900637 0.209143 0.634427 -0.120200 -0.856941 0.141306 -0.685623 0.197950 0.334524 1.361098 -1.023558 -1.579033 0.951000 -0.076283 -0.282224 1.186383 -0.431906 0.019856 -0.347975 0.378757 -0.255754 -0.446655 0.765495 0.098657 -0.944970 0.595058 -0.586640 0.538201 -0.037220 -0.921585 0.317255 0.528144 0.288470 1.156479 -0.506759 0.721327 0.713950 0.353889 0.789561 -0.290158 2.000667 -0.165198 0.839744 1.796825 0.105495 0.971186 0.407162 0.288946 -0.554620 0.102189 -0.072236 -1.089314 -0.695296 -0.218755 -0.937832 -0.379752 0.196578 -1.196218 -1.299005 0.882963 -1.746810 0.095616 0.058971 0.519594 0.569140 0.090431 -0.161188 -0.208725 0.442402 -0.978249 -0.497414 -0.026725 -1.690524 1.185098 -0.386201 -0.605299 0.325561 0.372475 -1.306629 1.034406 0.374228 -0.518241 -1.076881 -0.847347 -0.035933 0.665496 0.159638 -0.641587 -0.101172 0.054505 -1.403157 -0.360549 0.408861 -0.556626 -0.218236 0.088570 -1.557551 -0.305186 1.422804 -0.597051 -0.965963 0.032643 -0.242866 0.210441 -0.286496 0.031985 -1.670022 -0.197912 -1.166281 -1.104051 0.496748 -0.833896 1.260569 0.945655 -0.099174 0.085328 -0.027842 
